tree
version=v4
num_class=1
num_tree_per_iteration=1
label_index=0
max_feature_idx=16
objective=regression_l1
feature_names=month dayofweek weekofyear is_weekend lag_1 lag_7 lag_14 roll_7 cat_allergy cat_analgesic cat_anti_inflammatory cat_respiratory_airway cat_sedative temp_mean temp_min precip temp_roll7
feature_infos=[1:12] [0:6] [1:53] [0:1] [0:168.30000000000001] [0:168.30000000000001] [0:168.30000000000001] [0:90.955809523857141] [0:1] [0:1] [0:1] [0:1] [0:1] [-13.4:30.800000000000001] [-17.800000000000001:26] [0:55.100000000000001] [-9.5142857142857142:29.457142857142859]
tree_sizes=1406 1483 1462 1475 1471 1470 1483 1477 1467 1469 1471 1466 1468 1466 1500 1491 1481 1477 1471 1477 1467 1465 1477 1474 1467 1479 1466 1485 1481 1487 1480 1477 1487 1464 1464 1492 1464 1462 1483 1461 1497 1488 1465 1488 1468 1483 1480 1479 1481 1495 1454 1472 1476 1465 1495 1484 1468 1494 1471 1450 1482 1464 1484 1481 1475 1484 1495 1478 1501 1477 1477 1466 1486 1475 1460 1460 1486 1502 1469 1454 1467 1481 1494 1464 1496 1500 1496 1459 1475 1494 1479 1470 1508 1478 1452 1455 1477 1489 1472 1499 1477 1474 1485 1474 1493 1498 1453 1500 1517 1533 1516 1489 1518 1506 1473 1577 1505 1500 1502 1468 1534 1517 1501 1522 1471 1539 1473 1521 1492 1573 1495 1497 1525 1464 1521 1514 1512 1500 1509 1476 1542 1513 1533 1528 1510 1490 1546 1578 1547 1560 1534 1512 1529 1510 1580 1494 1539 1522 1533 1555 1563 1516 1544 1459 1509 1549 1544 1536 1522 1564 1532 1565 1555 1504 1538 1508 1495 1507 1502 1548 1532 1536 1547 1514 1520 1488 1492 1473 1520 1481 1486 1527 1493 1504 1546 1535 1509 1503 1520 1513 1516 1472 1553 1490 1556 1495 1477 1473 1518 1552 1435 1484 1510 1519 1500 1502 1526 1502 1517 1536 1520 1536 1518 1515 1559 1512 1545 1557 1535 1524 1496 1508 1495 1497 1516 1491 1480 1478 1511 1546 1485 1566 1521 1479 1522 1550 1550 1495 1543 1512 1560 1505 1581 1492 1545 1487 1510 1518 1546 1510 1543 1487 1555 1515 1475 1518 1508 1551 1517 1508 1481 1562 1499 1506 1597 1474 1584 1577 1550 1474 1508 1493 1517 1514 1581 1546 1514 1541 1487 1471 1530 1501 1479 1499 1556 1507 1510 1500 1562 1492 1504 1544 1538 1458 1536 1518 1495 1495 1520 1485 1549 1506 1505 1511 1473 1569 1568 1527 1566 1525 1523 1488 1509 1519 1492 1540 1477 1479 1496 1440 1551 1523 1537 1555 1608 1560 1557 1536 1525 1570 1531 1534 1505 1487 1494 1491 1583 1536 1528 1561 1484 1504 1582 1496 1563 1584 1524 1540 1488 1473 1546 1508 1538 1521 1535 1512 1539 1549 1456 1467 1544 1535 1521 1578 1557 1487 1519 1499 1524 1548 1514 1528 1501 1530 1489 1534 1546 1558 1513 1548 1548 1534 1528 1551 1515 1528 1550 1581 1510 1550

Tree=0
num_leaves=15
num_cat=0
split_feature=4 9 8 11 11 8 13 16 12 1 4 10 1 9
split_gain=2091.55 709.265 357.117 201.898 180.468 98.9806 34.3561 22.2886 20.4261 21.3588 16.6968 14.9741 33.1888 13.6737
threshold=6.0050000000000008 1.0000000180025095e-35 1.0000000180025095e-35 1.0000000180025095e-35 1.0000000180025095e-35 1.0000000180025095e-35 15.050000000000002 -0.88571428571428568 1.0000000180025095e-35 5.5000000000000009 12.002500000000001 1.0000000180025095e-35 4.5000000000000009 1.0000000180025095e-35
decision_type=2 2 2 2 2 2 2 2 2 2 2 2 2 2
left_child=2 4 3 8 5 7 -5 -2 13 -10 11 12 -9 -1
right_child=1 -3 -4 6 -6 -7 -8 10 9 -11 -12 -13 -14 -15
leaf_value=7.0849047136306762 7.1920047187805176 7.785254707336426 6.9145047187805178 7.0045047187805176 7.0045047187805176 6.9925047159194946 6.8845047187805175 7.1245047187805177 7.0795047187805178 7.0045047187805176 7.154504718780518 7.1050047302246098 7.0345047187805179 7.9150047302246094
leaf_weight=367 128 1662 1551 594 470 133 620 453 512 84 701 943 180 22
leaf_count=367 128 1662 1551 594 470 133 620 453 512 84 701 943 180 22
internal_value=7.0665 7.0799 7.04981 7.0576 7.0712 7.07437 7.04941 7.07576 7.06768 7.0642 7.07507 7.07335 7.06976 7.07303
internal_weight=8420 4670 3750 2199 3008 2538 1214 2405 985 596 2277 1576 633 389
internal_count=8420 4670 3750 2199 3008 2538 1214 2405 985 596 2277 1576 633 389
is_linear=0
shrinkage=1


Tree=1
num_leaves=15
num_cat=0
split_feature=7 7 7 11 6 8 10 12 4 7 7 13 2 3
split_gain=2510.99 670.151 179.477 112.181 62.3544 34.312 30.3646 35.4027 29.2376 16.5482 14.8966 14.3757 13.5957 13.0085
threshold=6.7150000000000007 15.60357142857143 3.5571428571428578 1.0000000180025095e-35 8.0050000000000008 1.0000000180025095e-35 1.0000000180025095e-35 1.0000000180025095e-35 4.5100000000000007 11.722642857142857 8.1002857142857163 15.050000000000002 15.500000000000002 1.0000000180025095e-35
decision_type=2 2 2 2 2 2 2 2 2 2 2 2 2 2
left_child=2 3 5 4 10 11 7 -4 -6 -10 -2 -1 -5 -9
right_child=1 -3 6 12 8 -7 -8 13 9 -11 -12 -13 -14 -15
leaf_value=-0.12013514156341552 -0.0023851415634155338 0.6649423530578612 -0.08743514156341553 -0.030135141563415527 0.0025648584365844671 -0.14743514156341553 0.0064498560905456425 -0.0023851415634155338 0.061499850082397445 0.15674985580444334 0.027614858436584466 -0.17653514156341552 -0.11653514156341552 -0.064635141563415544
leaf_weight=160 425 1824 1129 202 165 1227 150 260 1083 205 847 425 203 115
leaf_count=160 425 1824 1129 202 165 1227 150 260 1083 205 847 425 203 115
internal_value=0.000355226 0.0140595 -0.0192299 0.00563291 0.00782422 -0.0257566 -0.0120744 -0.0133584 0.0120723 0.0135955 0.00296462 -0.0197282 -0.00908889 -0.005336
internal_weight=8420 4954 3466 3130 2725 1812 1654 1504 1453 1288 1272 585 405 375
internal_count=8420 4954 3466 3130 2725 1812 1654 1504 1453 1288 1272 585 405 375
is_linear=0
shrinkage=0.03


Tree=2
num_leaves=15
num_cat=0
split_feature=7 7 7 6 4 8 8 1 13 5 6 7 7 1
split_gain=2397.66 657.686 209.961 84.8418 41.7154 41.0387 39.2107 25.9006 23.8415 18.6189 15.753 14.5583 13.4651 11.9977
threshold=6.7150000000000007 15.60357142857143 3.5571428571428578 6.0050000000000008 5.3100000000000014 1.0000000180025095e-35 1.0000000180025095e-35 5.5000000000000009 15.050000000000002 9.0500000000000025 7.4050000000000011 9.1442857142857168 7.7700000000000005 4.5000000000000009
decision_type=2 2 2 2 2 2 2 2 2 2 2 2 2 2
left_child=2 3 5 7 -5 8 10 12 -1 -6 -4 13 -2 -11
right_child=1 -3 6 4 9 -7 -8 -9 -10 11 -12 -13 -14 -15
leaf_value=-0.11653108731651306 -0.027363587316513067 0.64499408246612544 -0.057512087316513062 0.00019441958999633966 0.044804858013153051 -0.14301208731651305 -0.084812087316513074 -0.0555013350276947 -0.17123908731651305 0.015749861045837379 -0.023527860164165509 0.097218607183456401 0.024536412683486917 0.086008137351036046
leaf_weight=160 211 1824 810 379 901 1227 422 174 425 170 422 580 605 110
leaf_count=160 211 1824 810 379 901 1227 422 174 425 170 422 580 605 110
internal_value=0.000704394 0.0140959 -0.0184336 0.00574792 0.00910794 -0.0254917 -0.0106959 -0.00150606 -0.0189077 0.0110511 -0.00797971 0.0142221 0.000724265 0.00853929
internal_weight=8420 4954 3466 3130 2140 1812 1654 990 585 1761 1232 860 816 280
internal_count=8420 4954 3466 3130 2140 1812 1654 990 585 1761 1232 860 816 280
is_linear=0
shrinkage=0.03


Tree=3
num_leaves=15
num_cat=0
split_feature=7 7 7 11 6 8 8 11 1 13 4 9 1 5
split_gain=2370.44 640.009 213.068 85.2269 52.3062 41.0387 40.3046 29.3344 28.6326 23.8415 23.2486 20.0092 15.2578 12.6851
threshold=6.7150000000000007 14.035714285714286 3.5571428571428578 1.0000000180025095e-35 6.447000000000001 1.0000000180025095e-35 1.0000000180025095e-35 1.0000000180025095e-35 5.5000000000000009 15.050000000000002 5.3100000000000014 1.0000000180025095e-35 5.5000000000000009 9.0500000000000025
decision_type=2 2 2 2 2 2 2 2 2 2 2 2 2 2
left_child=2 3 5 4 8 9 7 -4 -2 -1 -6 12 -3 -12
right_child=1 11 6 -5 10 -7 -8 -9 -10 -11 13 -13 -14 -15
leaf_value=-0.11303515469701766 0.024250320302982319 0.22606676537086487 -0.0029577515115881067 -0.059228125670628531 0.020202035650749205 -0.13872172469701766 -0.082267724697017666 -0.085786724697017674 -0.057063541886959085 -0.16610191469701766 0.045853221256370522 0.66014427715827928 0.016066765370864874 0.073467064188594819
leaf_weight=160 666 191 525 404 307 1227 422 707 139 425 780 1684 35 748
leaf_count=160 666 191 525 404 307 1227 422 707 139 425 780 1684 35 748
internal_value=0.000647387 0.0139627 -0.0183817 0.00541754 0.00738295 -0.0254917 -0.0105871 -0.0078336 0.000995031 -0.0189077 0.0101804 0.0275764 0.0190752 0.0116957
internal_weight=8420 4954 3466 3044 2640 1812 1654 1232 805 585 1835 1910 226 1528
internal_count=8420 4954 3466 3044 2640 1812 1654 1232 805 585 1835 1910 226 1528
is_linear=0
shrinkage=0.03


Tree=4
num_leaves=15
num_cat=0
split_feature=7 7 7 6 4 6 9 13 7 7 1 12 5 10
split_gain=2356.26 643.219 213.068 68.5808 37.5611 30.1679 19.7075 19.1078 17.4129 15.4972 15.2578 14.8096 14.3834 13.1501
threshold=6.7150000000000007 14.035714285714286 3.5571428571428578 6.0050000000000008 5.3100000000000014 7.3450000000000006 1.0000000180025095e-35 5.1500000000000012 2.5642857142857145 7.7147142857142867 5.5000000000000009 1.0000000180025095e-35 9.0500000000000025 1.0000000180025095e-35
decision_type=2 2 2 2 2 2 2 2 2 2 2 2 2 2
left_child=2 3 8 9 -5 7 10 -4 -1 -2 -3 -9 -6 -11
right_child=1 6 5 4 12 -7 -8 11 -10 13 -12 -13 -14 -15
leaf_value=-0.15856007152559567 -0.056633335926898808 0.21928476240973893 -0.023213122956107144 -0.00068145179026422474 0.037285120212704061 -0.024232649770677579 0.64033994884353096 -0.082139692870276435 -0.13111885725610711 -0.0060271893061071592 0.015584762409738903 -0.058631992151670032 0.069095534124051464 0.025457810350570088
leaf_weight=1279 255 191 144 378 889 477 1684 849 533 469 35 184 802 251
leaf_count=1279 255 191 144 378 889 477 1684 849 533 469 35 184 802 251
internal_value=0.00059038 0.0138658 -0.0183817 0.00529928 0.00839101 -0.0105871 0.0275136 -0.0131699 -0.0254917 -0.00125231 0.0190752 -0.0145992 0.0103022 0.0009875
internal_weight=8420 4954 3466 3044 2069 1654 1910 1177 1812 975 226 1033 1691 720
internal_count=8420 4954 3466 3044 2069 1654 1910 1177 1812 975 226 1033 1691 720
is_linear=0
shrinkage=0.03


Tree=5
num_leaves=15
num_cat=0
split_feature=7 7 7 6 8 8 4 13 9 7 6 1 6 4
split_gain=2318.48 639.836 221.463 66.826 43.2947 41.0387 36.2454 23.8415 18.9631 17.6815 16.2673 15.2578 14.9519 12.8835
threshold=6.7150000000000007 14.035714285714286 3.5571428571428578 5.5025000000000004 1.0000000180025095e-35 1.0000000180025095e-35 5.3100000000000014 15.050000000000002 1.0000000180025095e-35 7.7147142857142867 8.0050000000000008 5.5000000000000009 6.1975000000000007 2.5500000000000003
decision_type=2 2 2 2 2 2 2 2 2 2 2 2 2 2
left_child=2 3 5 9 12 7 -5 -1 11 -2 -8 -3 13 -4
right_child=1 8 4 6 -6 -7 10 -9 -10 -11 -12 -13 -14 -15
leaf_value=-0.10571053433842392 -0.060521189228300201 0.21270621953744676 -0.10714893216999884 -0.00051847905308510355 -0.077335502169998835 -0.12980327081033927 0.024346103235991606 -0.15636205511033927 0.62112975037822515 0.0025090809610124509 0.060766557451049488 0.015117219537446722 -0.021097217982893789 -0.050748932169998852
leaf_weight=160 219 191 220 417 422 1227 580 425 1684 601 1227 35 512 500
leaf_count=160 219 191 220 417 422 1227 580 425 1684 601 1227 35 512 500
internal_value=0.000576128 0.0137447 -0.0182432 0.00520072 -0.0102969 -0.0254917 0.00790063 -0.0189077 0.0273565 -0.00211098 0.00974045 0.0190752 -0.00744399 -0.0102375
internal_weight=8420 4954 3466 3044 1654 1812 2224 585 1910 820 1807 226 1232 720
internal_count=8420 4954 3466 3044 1654 1812 2224 585 1910 820 1807 226 1232 720
is_linear=0
shrinkage=0.03


Tree=6
num_leaves=15
num_cat=0
split_feature=7 7 7 11 6 11 12 10 1 9 7 13 4 0
split_gain=2259.16 654.129 189.351 87.4716 44.8092 33.6398 28.2135 28.4388 26.5346 24.1192 22.2455 19.7188 15.4214 14.7374
threshold=6.4292857142857152 14.035714285714286 3.5571428571428578 1.0000000180025095e-35 6.447000000000001 1.0000000180025095e-35 1.0000000180025095e-35 1.0000000180025095e-35 5.5000000000000009 1.0000000180025095e-35 11.001857142857144 15.050000000000002 6.0215000000000005 9.5000000000000018
decision_type=2 2 2 2 2 2 2 2 2 2 2 2 2 2
left_child=2 3 5 4 8 -1 7 13 -2 -3 12 -7 -6 -4
right_child=1 9 6 -5 10 11 -8 -9 -10 -11 -12 -13 -14 -15
leaf_value=-0.12590917268602908 0.023169236528739326 0.17677503295132335 -0.079092648312056146 -0.055664718946171608 0.017545015561107886 -0.10253921830827119 -0.029313898885566542 0.011467562612165132 -0.053172005254417488 0.60249585786687831 0.097824293551646305 -0.15167119345702909 0.047858570226114186 -0.049226464204898894
leaf_weight=1240 708 226 884 455 422 150 316 101 151 1684 306 422 1168 187
leaf_count=1240 708 226 884 455 422 150 316 101 151 1684 306 422 1168 187
internal_value=0.000412233 0.0128889 -0.0189427 0.00461402 0.00662831 -0.0254586 -0.011002 -0.0131493 0.00093248 0.0267911 0.00920411 -0.0193899 0.00776792 -0.0145854
internal_weight=8420 5120 3300 3210 2755 1812 1488 1172 859 1910 1896 572 1590 1071
internal_count=8420 5120 3300 3210 2755 1812 1488 1172 859 1910 1896 572 1590 1071
is_linear=0
shrinkage=0.03


Tree=7
num_leaves=15
num_cat=0
split_feature=7 7 8 11 11 7 7 16 9 2 1 2 10 1
split_gain=2156.82 617.902 232.36 76.7981 76.6365 39.2987 30.8492 25.8763 24.1994 12.6838 12.3009 12.2751 11.4503 11.2154
threshold=6.7150000000000007 14.035714285714286 1.0000000180025095e-35 1.0000000180025095e-35 1.0000000180025095e-35 3.8642857142857148 9.0009285714285738 19.56428571428572 1.0000000180025095e-35 15.500000000000002 5.5000000000000009 24.500000000000004 1.0000000180025095e-35 5.5000000000000009
decision_type=2 2 2 2 2 2 2 2 2 2 2 2 2 2
left_child=2 3 4 6 13 -4 12 -6 10 -5 -3 -7 -2 -1
right_child=1 8 5 9 7 11 -8 -9 -10 -11 -12 -13 -14 -15
leaf_value=0.0024444168588558845 0.00059936935268662945 0.20102178196278367 -0.12213189750544823 -0.026414851108160838 -0.077556522636513761 -0.044982657569706513 0.053383276848383496 -0.1471210576533182 0.5844209821308719 -0.10843469238818998 0.0093604519627836606 -0.10264265765553721 0.024957862573917307 -0.081375147455452976
leaf_weight=458 559 191 1303 202 813 240 1293 466 1684 202 35 106 788 80
leaf_count=458 559 191 1303 202 813 240 1293 466 1684 202 35 106 788 80
internal_value=0.000462114 0.0131633 -0.0176893 0.00476708 -0.0102812 -0.0258466 0.00663295 -0.0142776 0.0265398 -0.00740347 0.0172168 -0.0167948 0.00344543 -0.000763941
internal_weight=8420 4954 3466 3044 1817 1649 2640 1279 1910 404 226 346 1347 538
internal_count=8420 4954 3466 3044 1817 1649 2640 1279 1910 404 226 346 1347 538
is_linear=0
shrinkage=0.03


Tree=8
num_leaves=15
num_cat=0
split_feature=7 7 8 11 11 7 6 16 7 4 1 1 7 6
split_gain=2075.09 606.382 209.89 75.5745 73.9582 39.4708 39.2581 25.5567 23.6533 20.635 16.5198 16.4341 15.2051 14.6253
threshold=6.7150000000000007 14.035714285714286 1.0000000180025095e-35 1.0000000180025095e-35 1.0000000180025095e-35 2.721428571428572 8.0050000000000008 19.56428571428572 20.539285714285715 4.5100000000000007 5.5000000000000009 5.5000000000000009 11.001857142857144 6.1975000000000007
decision_type=2 2 2 2 2 2 2 2 2 2 2 2 2 2
left_child=2 4 3 -1 6 -4 11 -5 10 -8 -3 -2 -11 -13
right_child=1 8 5 7 -6 -7 9 -9 -10 12 -12 13 -14 -15
leaf_value=-0.00070352522643244873 0.021548259024736525 0.20330651232943581 -0.11929117700836944 -0.075229826957418339 -0.05496169110716366 -0.089291177008369443 1.7685404151199788e-05 -0.14270742592371866 0.59988836411103752 0.048390195284130279 0.061483989813377091 -0.052494826177365575 0.095984702762035717 0.025540818189107688
leaf_weight=538 1052 310 996 813 404 653 164 466 1544 986 56 133 239 66
leaf_count=538 1052 310 996 813 404 653 164 466 1544 986 56 133 239 66
internal_value=0.000547625 0.0130059 -0.0172565 -0.0102152 0.00468824 -0.0250097 0.00651932 -0.0141837 0.0262571 0.00999352 0.0193197 0.00265468 0.0113314 -0.00523116
internal_weight=8420 4954 3466 1817 3044 1649 2640 1279 1910 1389 366 1251 1225 199
internal_count=8420 4954 3466 1817 3044 1649 2640 1279 1910 1389 366 1251 1225 199
is_linear=0
shrinkage=0.03


Tree=9
num_leaves=15
num_cat=0
split_feature=7 7 8 11 11 7 7 7 16 2 7 10 5 4
split_gain=2039.88 605.105 206.8 75.5745 71.5369 40.5137 32.0343 26.438 25.5567 13.4096 11.9074 10.1905 11.0395 9.66055
threshold=6.7150000000000007 14.035714285714286 1.0000000180025095e-35 1.0000000180025095e-35 1.0000000180025095e-35 2.721428571428572 9.0009285714285738 22.601190476428574 19.56428571428572 15.500000000000002 5.4214285714285735 1.0000000180025095e-35 14.542500000000002 5.6815000000000007
decision_type=2 2 2 2 2 2 2 2 2 2 2 2 2 2
left_child=2 4 3 -1 6 -4 11 -3 -5 -6 -7 -2 -13 -8
right_child=1 7 5 8 9 10 13 -9 -10 -11 -12 12 -14 -15
leaf_value=-0.00068241946963946802 -6.5059498636070858e-05 0.1905709723100997 -0.11571244169811837 -0.072972932148695782 -0.023973554841701095 -0.086612441698118367 0.018540129972270277 0.61189171318770641 -0.13842620314600712 -0.10353280088332935 -0.038614442618194945 0.019521792503874511 0.084917964472935287 0.054613894472861017
leaf_weight=538 559 492 996 813 202 554 166 1418 466 202 99 759 29 1127
leaf_count=538 559 492 996 813 202 554 166 1418 466 202 99 759 29 1127
internal_value=0.000447862 0.0128 -0.0172046 -0.0102152 0.00449113 -0.0249005 0.00629205 0.0260372 -0.0141837 -0.00725495 -0.0190521 0.00304454 0.00524239 0.00966821
internal_weight=8420 4954 3466 1817 3044 1649 2640 1910 1279 404 653 1347 788 1293
internal_count=8420 4954 3466 1817 3044 1649 2640 1910 1279 404 653 1347 788 1293
is_linear=0
shrinkage=0.03


Tree=10
num_leaves=15
num_cat=0
split_feature=7 7 8 11 11 6 7 7 0 4 1 6 7 1
split_gain=2008.24 607.361 209.606 73.9954 69.1558 40.7712 40.5137 25.0597 19.3409 19.0607 14.3069 14.6253 13.9583 13.4831
threshold=6.7150000000000007 14.035714285714286 1.0000000180025095e-35 1.0000000180025095e-35 1.0000000180025095e-35 8.0050000000000008 2.721428571428572 22.601190476428574 9.5000000000000018 4.5100000000000007 5.5000000000000009 6.1975000000000007 11.722642857142857 5.5000000000000009
decision_type=2 2 2 2 2 2 2 2 2 2 2 2 2 2
left_child=2 4 3 -1 5 10 -4 13 -5 -7 -2 -12 -11 -3
right_child=1 7 6 8 -6 9 -8 -9 -10 12 11 -13 -14 -15
leaf_value=-0.00066194688555027521 0.019583206683398684 0.19362328890694389 -0.11224106844717481 -0.11034827920103935 -0.052127083521565191 1.9106626985765372e-05 -0.084014068447174808 0.59353496179207532 -0.040130891826473086 0.048124249022082288 -0.050918029607085503 0.024482742648355885 0.11556181304692177 0.08382669235914969
leaf_weight=538 1052 418 996 1041 404 164 653 1418 238 1083 133 66 142 74
leaf_count=538 1052 418 996 1041 404 164 653 1418 238 1083 133 66 142 74
internal_value=0.000362352 0.0126183 -0.0171526 -0.0101161 0.00429402 0.00606477 -0.0249005 0.0258801 -0.014043 0.00960475 0.0021271 -0.00523116 0.0108906 0.0199817
internal_weight=8420 4954 3466 1817 3044 2640 1649 1910 1279 1389 1251 199 1225 492
internal_count=8420 4954 3466 1817 3044 2640 1649 1910 1279 1389 1251 199 1225 492
is_linear=0
shrinkage=0.03


Tree=11
num_leaves=15
num_cat=0
split_feature=6 8 9 11 11 4 1 13 2 14 9 5 5 5
split_gain=1656.31 480.578 450.195 197.163 90.5572 38.9477 27.0544 24.6563 33.1073 24.2918 18.2743 18.0502 17.0105 16.8266
threshold=8.0050000000000008 1.0000000180025095e-35 1.0000000180025095e-35 1.0000000180025095e-35 1.0000000180025095e-35 6.6815000000000007 5.5000000000000009 13.15 25.500000000000004 1.3500000000000003 1.0000000180025095e-35 11.005000000000001 7.6865000000000014 6.0050000000000008
decision_type=2 2 2 2 2 2 2 2 2 2 2 2 2 2
left_child=1 3 4 6 5 13 10 -3 -9 -5 -1 -8 -7 -2
right_child=2 7 -4 9 -6 12 11 8 -10 -11 -12 -13 -14 -15
leaf_value=0.019029082171142013 -0.030090599020556545 -0.11805060115776779 0.51140888272591067 -0.011540762169103998 -0.051029821223050741 0.039417983843560121 -0.047335566230778135 -0.035835647228005446 -0.1080505999656749 -0.10786106725309283 0.68283643513985104 0.10119550332062439 0.076170951742339843 0.035138177803595905
leaf_weight=1336 174 828 1642 223 342 443 252 313 480 1119 29 39 830 370
leaf_count=1336 174 828 1642 223 342 443 252 313 480 1119 29 39 830 370
internal_value=0.000269715 -0.0117993 0.0149384 -0.00468012 0.00592913 0.00859714 0.00224094 -0.0249605 -0.0211362 -0.0132273 0.00401538 -0.00605155 0.0114698 0.00185846
internal_weight=8420 4619 3801 2998 2159 1817 1656 1621 793 1342 1365 291 1273 544
internal_count=8420 4619 3801 2998 2159 1817 1656 1621 793 1342 1365 291 1273 544
is_linear=0
shrinkage=0.03


Tree=12
num_leaves=15
num_cat=0
split_feature=6 8 4 11 11 6 13 2 5 5 16 8 5 16
split_gain=1587.01 468.003 399.377 191.292 73.0381 59.5043 26.585 29.1303 26.2938 24.9463 23.0547 20.1947 17.3685 15.3104
threshold=8.0050000000000008 1.0000000180025095e-35 13.147500000000003 1.0000000180025095e-35 1.0000000180025095e-35 17.005000000000003 16.150000000000002 24.500000000000004 11.335000000000003 16.531000000000002 19.421428571428574 1.0000000180025095e-35 6.6610000000000005 15.135714285714288
decision_type=2 2 2 2 2 2 2 2 2 2 2 2 2 2
left_child=1 3 4 9 8 12 -3 -8 11 -1 -5 -2 -4 -6
right_child=2 6 5 10 13 -7 7 -9 -10 -11 -12 -13 -14 -15
leaf_value=0.0075875260743076727 0.03128568656058342 -0.10795212835902653 0.01373929059661004 -0.063040044850122684 -0.038885852823707184 0.52438662356835197 -0.03242057789699599 -0.090690777894421051 0.091542334482149129 0.13041813956209139 -0.12772713665800292 -0.066287003940931968 0.11957544418185301 -0.11921099067429472
leaf_weight=1547 984 983 76 888 215 1485 191 447 491 109 454 61 396 93
leaf_count=1547 984 983 76 888 215 1485 191 447 491 109 454 61 396 93
internal_value=0.000248337 -0.0115655 0.0146069 -0.00454003 0.00458297 0.0240475 -0.0245534 -0.0197351 0.00725977 0.00227717 -0.012959 0.00455598 0.0147267 -0.00873701
internal_weight=8420 4619 3801 2998 1844 1957 1621 638 1536 1656 1342 1045 472 308
internal_count=8420 4619 3801 2998 1844 1957 1621 638 1536 1656 1342 1045 472 308
is_linear=0
shrinkage=0.03


Tree=13
num_leaves=15
num_cat=0
split_feature=7 7 7 6 8 8 4 7 7 7 12 10 13 7
split_gain=1848.59 606.325 186.993 60.8586 45.8239 34.2197 30.201 24.59 18.7695 14.71 12.7868 17.0846 12.449 12.0072
threshold=6.4292857142857152 16.005952380000004 2.721428571428572 6.447000000000001 1.0000000180025095e-35 1.0000000180025095e-35 6.0050000000000008 25.446428571428573 7.7147142857142867 11.722642857142857 1.0000000180025095e-35 1.0000000180025095e-35 15.050000000000002 5.2916666666428585
decision_type=2 2 2 2 2 2 2 2 2 2 2 2 2 2
left_child=2 3 5 8 10 12 -5 -3 -2 -8 11 -4 -1 -6
right_child=1 7 4 6 13 -7 9 -9 -10 -11 -12 -13 -14 -15
leaf_value=-0.084874349715791733 -0.03531166869505202 0.19931657994810748 -0.076513165950085227 0.003200400609296503 -0.075531405057956677 -0.10239375454401851 0.037351787590444205 0.60465504774948509 0.009945630776385328 0.11491374588685373 -0.02910115896261347 0.011216149092392795 -0.12389532255826283 -0.032887900532483805
leaf_weight=84 369 554 822 544 541 996 1361 1242 792 258 327 101 324 105
leaf_count=84 369 554 822 544 541 996 1361 1242 792 258 327 101 324 105
internal_value=0.000219834 0.0115061 -0.0172882 0.00391426 -0.0111345 -0.0255919 0.00688904 0.0255518 -0.00162016 0.00894441 -0.0077688 -0.00957855 -0.0182132 -0.0176331
internal_weight=8420 5120 3300 3324 1896 1404 2163 1796 1161 1619 1250 923 408 646
internal_count=8420 5120 3300 3324 1896 1404 2163 1796 1161 1619 1250 923 408 646
is_linear=0
shrinkage=0.03


Tree=14
num_leaves=15
num_cat=0
split_feature=7 7 7 11 11 6 7 16 7 12 10 7 6 12
split_gain=1778.35 588.415 208.289 64.9963 45.4982 36.4376 33.0038 17.8871 17.3901 16.4203 19.416 15.798 12.4408 12.4214
threshold=6.4292857142857152 14.500000000000002 3.2928571428571431 1.0000000180025095e-35 1.0000000180025095e-35 8.0050000000000008 28.105714285714292 18.63571428571429 11.001857142857144 1.0000000180025095e-35 1.0000000180025095e-35 8.1002857142857163 12.002500000000001 1.0000000180025095e-35
decision_type=2 2 2 2 2 2 2 2 2 2 2 2 2 2
left_child=2 3 4 5 13 11 12 -6 -7 10 -4 -2 -3 -1
right_child=1 6 9 -5 7 8 -8 -9 -10 -11 -12 -13 -14 -15
leaf_value=-0.099021941871935165 -0.0055603170477761393 0.10976020048913021 -0.059414128124975797 -0.042807216649473956 -0.098213746791339915 0.036820836369231398 0.64801537342881688 -0.12017846288151494 0.087281242219921895 -0.028454419582705694 0.010879664619621011 0.020986219871064415 0.21695683525733539 0.064050697635507595
leaf_weight=1166 490 121 1158 455 210 1182 1067 336 276 319 101 836 693 9.9999999999999982
leaf_count=1166 490 121 1158 455 210 1182 1067 336 276 319 101 836 693 10
internal_value=0.000283967 0.0113537 -0.0168882 0.00360019 -0.0241063 0.00532004 0.0247002 -0.0169066 0.00859465 -0.0090057 -0.0105488 0.00171267 0.0201118 -0.0274413
internal_weight=8420 5120 3300 3239 1722 2784 1881 546 1458 1578 1259 1326 814 1176
internal_count=8420 5120 3300 3239 1722 2784 1881 546 1458 1578 1259 1326 814 1176
is_linear=0
shrinkage=0.03


Tree=15
num_leaves=15
num_cat=0
split_feature=7 7 8 7 6 7 7 4 1 10 12 7 4 14
split_gain=1663.47 551.676 228.26 72.2601 44.3267 33.8326 29.6165 28.8837 13.9782 12.7285 16.1414 11.0405 10.6548 12.5469
threshold=6.7150000000000007 14.500000000000002 1.0000000180025095e-35 3.2928571428571431 6.447000000000001 25.968428571428579 2.5642857142857145 6.0050000000000008 5.5000000000000009 1.0000000180025095e-35 1.0000000180025095e-35 9.0624285714285744 5.3100000000000014 16.950000000000003
decision_type=2 2 2 2 2 2 2 2 2 2 2 2 2 2
left_child=2 4 6 -4 8 -3 -1 -6 11 10 -8 -2 13 -13
right_child=1 5 3 -5 7 -7 9 -9 -10 -11 -12 12 -14 -15
leaf_value=-0.11657310899506951 -0.0073949521314863979 0.18109639093317659 -0.096051283615777097 -0.057399594564598123 0.0011023611029404544 0.57682490078186066 -0.065225519136275376 0.040841226066785648 -0.046071887941893937 0.0076993076136274751 -0.016799347723287027 -0.038138282131864237 0.045894200575429457 0.062700269929559266
leaf_weight=359 508 689 1166 483 497 1192 921 1514 177 150 387 63 306 7.9999999999999991
leaf_count=359 508 689 1166 483 497 1192 921 1514 177 150 387 63 306 8
internal_value=0.000397981 0.0115525 -0.0155427 -0.023627 0.00371656 0.0243493 -0.00820088 0.00633565 -0.00123446 -0.00629012 -0.00724083 0.000294915 0.00419363 -0.00621127
internal_weight=8420 4954 3466 1649 3073 1881 1817 2011 1062 1458 1308 885 377 71
internal_count=8420 4954 3466 1649 3073 1881 1817 2011 1062 1458 1308 885 377 71
is_linear=0
shrinkage=0.03


Tree=16
num_leaves=15
num_cat=0
split_feature=7 9 8 7 11 6 11 7 7 4 1 6 0 1
split_gain=1614.2 565.311 203.715 76.6978 65.5307 41.5187 36.1772 24.2561 20.0745 15.0342 12.9407 12.2571 12.1713 11.9411
threshold=6.4292857142857152 1.0000000180025095e-35 1.0000000180025095e-35 3.2928571428571431 1.0000000180025095e-35 12.345000000000001 1.0000000180025095e-35 9.0009285714285738 28.105714285714292 2.0100000000000002 5.5000000000000009 4.0050000000000008 9.5000000000000018 4.5000000000000009
decision_type=2 2 2 2 2 2 2 2 2 2 2 2 2 2
left_child=2 4 6 -4 5 7 10 11 -3 -7 -1 13 -8 -2
right_child=1 8 3 -5 -6 9 12 -9 -10 -11 -12 -13 -14 -15
leaf_value=0.0037316063269247565 -1.0940253129554379e-06 0.21115826427259768 -0.093169745107303775 -0.055446911940787422 -0.043607929778782431 -0.038615589882840202 -0.095370141117747623 0.036826912757669597 0.61127016520249655 0.085639975390138109 -0.077195367291588407 0.010907680592195684 -0.028611347312242366 -0.06225109402531296
leaf_weight=367 156 617 1166 476 456 25 1009 1086 1067 632 63 996 219 85
leaf_count=367 156 617 1166 476 456 25 1009 1086 1067 632 63 996 219 85
internal_value=0.000326722 0.0108732 -0.0160336 -0.0235268 0.00389144 0.00551376 -0.00860736 0.00362505 0.0251134 0.0121781 -0.00109535 0.000744543 -0.0112305 -0.00531535
internal_weight=8420 5120 3300 1642 3436 2980 1658 2323 1684 657 430 1237 1228 241
internal_count=8420 5120 3300 1642 3436 2980 1658 2323 1684 657 430 1237 1228 241
is_linear=0
shrinkage=0.03


Tree=17
num_leaves=15
num_cat=0
split_feature=5 4 8 11 11 5 8 13 4 5 1 4 2 13
split_gain=1321.67 454.717 317.993 85.0231 58.6676 52.8758 33.3457 31.5981 23.8174 21.8828 20.6574 15.979 14.1622 25.1228
threshold=6.0050000000000008 14.325000000000001 1.0000000180025095e-35 1.0000000180025095e-35 1.0000000180025095e-35 15.305000000000001 1.0000000180025095e-35 14.450000000000001 6.1975000000000007 16.531000000000002 4.5000000000000009 21.425000000000001 31.500000000000004 13.550000000000002
decision_type=2 2 2 2 2 2 2 2 2 2 2 2 2 2
left_child=2 4 3 10 6 -3 9 -5 12 -2 -1 -12 13 -4
right_child=1 5 8 7 -6 -7 -8 -9 -10 -11 11 -13 -14 -15
leaf_value=0.024541381095139279 0.026338596347321087 0.070848197458431614 -0.089551416326000013 -0.033173993338629595 -0.039780933935563513 0.43543206024642167 -0.038059045959169265 -0.11021481149168499 -0.042703236990106704 0.1228316648823031 -0.046349567627445944 0.31378326250379307 -0.094618173788367496 -0.060369256875700966
leaf_weight=683 1873 390 498 571 432 1560 132 643 104 268 296 20 594 356
leaf_count=683 1873 390 498 571 432 1560 132 643 104 268 296 20 594 356
internal_value=0.000476366 0.0111667 -0.0127386 -0.00543199 0.00320185 0.0222108 0.00513022 -0.0107669 -0.0231514 0.00603503 0.00104204 -0.00528797 -0.0241512 -0.0216288
internal_weight=8420 4655 3765 2213 2705 1950 2273 1214 1552 2141 999 316 1448 854
internal_count=8420 4655 3765 2213 2705 1950 2273 1214 1552 2141 999 316 1448 854
is_linear=0
shrinkage=0.03


Tree=18
num_leaves=15
num_cat=0
split_feature=7 7 8 7 11 7 11 7 16 14 7 16 4 7
split_gain=1424.29 522.813 172.867 63.6217 53.3085 39.2611 29.563 27.4486 18.3005 11.8753 11.4136 10.6435 10.2506 8.30957
threshold=6.4292857142857152 16.005952380000004 1.0000000180025095e-35 3.8642857142857148 1.0000000180025095e-35 27.632142857142863 1.0000000180025095e-35 9.1414285714285732 19.56428571428572 19.150000000000002 2.4328571428571428 17.621428571428577 5.6815000000000007 5.2820238095238103
decision_type=2 2 2 2 2 2 2 2 2 2 2 2 2 2
left_child=2 4 6 10 7 -3 -1 -2 -8 13 -4 -6 -9 -5
right_child=1 5 3 9 11 -7 8 12 -10 -11 -12 -13 -14 -15
leaf_value=-0.010379820355081833 0.010428116360137962 0.1772363111361728 -0.096864875028312911 -0.046558767078537754 -0.03234258701340665 0.57236909843902906 -0.055582783533288535 0.0075857669396659048 -0.10690836714693443 -0.079568073320203006 -0.075974089883040427 -0.11877945142979425 0.048572805758870727 -0.011592348426473728
leaf_weight=430 1516 704 897 204 402 1092 767 163 461 41 406 54 1189 94
leaf_count=430 1516 704 897 204 402 1092 767 163 461 41 406 54 1189 94
internal_value=0.000497743 0.0104045 -0.01487 -0.0217728 0.00335469 0.0234471 -0.00802835 0.00487134 -0.0103998 -0.0101504 -0.0247897 -0.00616447 0.00798151 -0.00802349
internal_weight=8420 5120 3300 1642 3324 1796 1658 2868 1228 339 1303 456 1352 298
internal_count=8420 5120 3300 1642 3324 1796 1658 2868 1228 339 1303 456 1352 298
is_linear=0
shrinkage=0.03


Tree=19
num_leaves=15
num_cat=0
split_feature=7 7 7 11 7 8 8 6 2 7 7 16 7 11
split_gain=1372.03 524.726 159.561 50.315 39.2848 35.5322 35.3835 33.5337 20.6034 19.9525 14.6312 14.4101 14.0257 13.5054
threshold=6.2810714285714289 16.005952380000004 2.5642857142857145 1.0000000180025095e-35 28.105714285714292 1.0000000180025095e-35 1.0000000180025095e-35 8.0610000000000017 28.500000000000004 9.9981428571428594 8.1002857142857163 4.3142857142857149 5.2820238095238103 1.0000000180025095e-35
decision_type=2 2 2 2 2 2 2 2 2 2 2 2 2 2
left_child=2 3 5 7 -3 -1 11 10 12 -9 -2 -4 -8 -13
right_child=1 4 6 -5 -6 -7 8 9 -10 -11 -12 13 -14 -15
leaf_value=-0.10370111613252637 -0.0074585565587043942 0.17356088471607917 0.005257561121954568 -0.034765459044078802 0.56269802548585812 -0.090833928181417084 -0.048742178083370606 0.026341680452606164 -0.085556884879705253 0.077479811118519981 0.019251234586315176 -0.018205906648657788 -0.0082445808347024665 -0.079985928519146668
leaf_weight=359 561 729 161 522 1067 920 410 971 209 571 859 294 93 694
leaf_count=359 561 729 161 522 1067 920 410 971 209 571 859 294 93 694
internal_value=0.000533373 0.0098733 -0.0151691 0.00308008 0.0230462 -0.0233315 -0.00955454 0.00459521 -0.0148188 0.00765953 0.00126127 -0.0062846 -0.011493 -0.00764271
internal_weight=8420 5280 3140 3484 1796 1279 1861 2962 712 1542 1420 1149 503 988
internal_count=8420 5280 3140 3484 1796 1279 1861 2962 712 1542 1420 1149 503 988
is_linear=0
shrinkage=0.03


Tree=20
num_leaves=15
num_cat=0
split_feature=7 7 7 11 7 8 8 6 2 7 7 16 13 16
split_gain=1337.28 506.718 164.084 48.4557 42.5381 35.5322 33.4743 30.2676 20.873 17.4624 15.5761 14.0502 13.4679 13.0672
threshold=6.2810714285714289 15.60357142857143 2.5642857142857145 1.0000000180025095e-35 28.105714285714292 1.0000000180025095e-35 1.0000000180025095e-35 6.447000000000001 28.500000000000004 11.001857142857144 8.0007142857142863 4.3142857142857149 9.4500000000000011 17.621428571428577
decision_type=2 2 2 2 2 2 2 2 2 2 2 2 2 2
left_child=2 3 5 7 -3 -1 11 10 12 -9 -2 -4 -8 -5
right_child=1 4 6 13 -6 -7 8 9 -10 -11 -12 -13 -14 -15
leaf_value=-0.10059008264855059 -0.012911198829057814 0.16517563415542266 0.0050998342882959324 -0.022007475106723077 0.54581708472128243 -0.088108910335974566 -0.087372302709894212 0.024525746786590936 -0.082990178333314096 0.076647674864048373 0.017720929542096489 -0.05677613196493797 -0.037192904123885179 -0.11417310411557809
leaf_weight=359 364 757 161 453 1067 920 54 1638 209 377 555 988 449 69
leaf_count=359 364 757 161 453 1067 920 54 1638 209 377 555 988 449 69
internal_value=0.000447862 0.00966875 -0.0150545 0.00291406 0.0224622 -0.0233315 -0.0093611 0.00441411 -0.0144817 0.00647196 -8.81393e-05 -0.00618016 -0.0111352 -0.0055
internal_weight=8420 5280 3140 3456 1824 1279 1861 2934 712 2015 919 1149 503 522
internal_count=8420 5280 3140 3456 1824 1279 1861 2934 712 2015 919 1149 503 522
is_linear=0
shrinkage=0.03


Tree=21
num_leaves=15
num_cat=0
split_feature=7 7 7 6 7 8 8 2 4 5 13 7 1 7
split_gain=1307.05 491.329 167.135 44.8335 41.5779 35.5322 31.8698 22.2326 19.7918 17.712 14.1703 14.0222 11.9881 11.8364
threshold=6.2810714285714289 16.005952380000004 2.5642857142857145 5.5025000000000004 28.105714285714292 1.0000000180025095e-35 1.0000000180025095e-35 28.500000000000004 5.6650000000000009 3.3450000000000002 9.4500000000000011 11.14357142857143 5.5000000000000009 7.7132142857142867
decision_type=2 2 2 2 2 2 2 2 2 2 2 2 2 2
left_child=2 3 5 9 -3 -1 -4 10 -5 -2 -8 -10 -11 -14
right_child=1 4 6 8 -6 -7 7 -9 11 12 -12 -13 13 -15
leaf_value=-0.097572380169094058 -0.047645552281163558 0.16339878914993414 -0.044290170813578146 -3.0493575599734865e-05 0.52944257217964397 -0.085465643025895321 -0.084751133628597403 -0.080500472983314683 0.025762164045486421 0.0071558553512783302 -0.036077117000168621 0.076272182140668165 -0.095266825558181306 -0.013903968337104481
leaf_weight=359 210 729 1149 539 1067 920 54 209 1571 658 449 385 37 84
leaf_count=359 210 729 1149 539 1067 920 54 209 1571 658 449 385 37 84
internal_value=0.0003481 0.0094642 -0.014978 0.00289064 0.022211 -0.0233315 -0.00923213 -0.0142289 0.00503447 -0.00250859 -0.0107773 0.00643712 -0.000412067 -0.00909917
internal_weight=8420 5280 3140 3484 1796 1279 1861 712 2495 989 503 1956 779 121
internal_count=8420 5280 3140 3484 1796 1279 1861 712 2495 989 503 1956 779 121
is_linear=0
shrinkage=0.03


Tree=22
num_leaves=15
num_cat=0
split_feature=7 7 7 11 7 8 8 6 2 7 16 7 16 11
split_gain=1265.79 483.79 163.606 44.9461 43.0881 39.7711 33.7126 32.3551 21.1443 18.251 14.0672 13.851 13.5725 13.1264
threshold=6.2810714285714289 16.005952380000004 2.5642857142857145 1.0000000180025095e-35 29.746428571428574 1.0000000180025095e-35 1.0000000180025095e-35 12.345000000000001 28.500000000000004 9.0009285714285738 4.3142857142857149 5.2820238095238103 17.621428571428577 1.0000000180025095e-35
decision_type=2 2 2 2 2 2 2 2 2 2 2 2 2 2
left_child=2 3 5 7 -3 -1 10 9 11 -2 -4 -8 -5 -12
right_child=1 4 6 12 -6 -7 8 -9 -10 -11 13 -13 -14 -15
leaf_value=-0.094645208764021244 0.0023602032023189246 0.16630107489826584 0.0062755443840544168 -0.021084482215313994 0.55405924923788752 -0.082901673735118447 -0.04484767401191566 0.063467565138849755 -0.078085458793815246 0.028484674390720579 -0.014627740365842573 -0.0057991427759397848 -0.10931854442367583 -0.074554361580216777
leaf_weight=359 1323 829 161 453 967 920 410 608 209 1031 294 93 69 694
leaf_count=359 1323 829 161 453 967 920 410 608 209 1031 294 93 69 694
internal_value=0.000390855 0.00936193 -0.0146914 0.00283898 0.0220106 -0.0229562 -0.00900645 0.0042711 -0.0141447 0.00267247 -0.00581462 -0.0107773 -0.00527011 -0.00715688
internal_weight=8420 5280 3140 3484 1796 1279 1861 2962 712 2354 1149 503 522 988
internal_count=8420 5280 3140 3484 1796 1279 1861 2962 712 2354 1149 503 522 988
is_linear=0
shrinkage=0.03


Tree=23
num_leaves=15
num_cat=0
split_feature=7 9 7 6 7 7 7 5 16 4 13 16 6 2
split_gain=1245.44 475.654 162.576 43.3879 35.4163 24.6508 22.0799 19.5441 14.2216 12.5678 11.9619 11.926 11.7213 10.9746
threshold=6.2810714285714289 1.0000000180025095e-35 2.5642857142857145 5.5025000000000004 29.746428571428574 11.001857142857144 4.2785714285714294 3.3450000000000002 6.3142857142857158 5.6650000000000009 30.250000000000004 6.8785714285714299 11.995000000000003 31.500000000000004
decision_type=2 2 2 2 2 2 2 2 2 2 2 2 2 2
left_child=2 3 11 7 10 9 12 -2 -8 -5 13 -1 -4 -3
right_child=1 4 6 5 -6 -7 8 -9 -10 -11 -12 -13 -14 -15
leaf_value=-0.10338762020314743 -0.048026433622037207 0.16237501331059201 -0.067938146402701044 -0.0034376227174997263 0.53743747176075085 0.072174879370886291 0.0060872780525327739 0.00037848327700288118 -0.040231940776380315 0.025139308736742406 -0.018139523674027522 -0.075859651814586607 0.010727636207073501 0.2430345206042914
leaf_weight=462 213 528 829 491 967 556 168 790 820 1546 4.9999999999999991 817 44 184
leaf_count=462 213 528 829 491 967 556 168 790 820 1546 5 817 44 184
internal_value=0.000383729 0.00928239 -0.0145768 0.00311763 0.0224412 0.00516815 -0.00890973 -0.00217448 -0.00582085 0.00363328 0.0173515 -0.0228155 -0.0123952 0.017684
internal_weight=8420 5280 3140 3596 1684 2593 1861 1003 988 2037 717 1279 873 712
internal_count=8420 5280 3140 3596 1684 2593 1861 1003 988 2037 717 1279 873 712
is_linear=0
shrinkage=0.03


Tree=24
num_leaves=15
num_cat=0
split_feature=7 7 7 8 6 7 8 2 11 7 5 7 16 16
split_gain=1204.79 453.19 159.11 45.9245 39.3577 39.1981 30.2881 23.8332 23.0903 18.1475 14.927 14.7151 13.6085 13.3056
threshold=6.1435714285714296 16.005952380000004 2.5642857142857145 1.0000000180025095e-35 6.3465000000000007 27.632142857142863 1.0000000180025095e-35 28.500000000000004 1.0000000180025095e-35 11.001857142857144 6.3465000000000007 5.4214285714285735 4.3142857142857149 20.035714285714288
decision_type=2 2 2 2 2 2 2 2 2 2 2 2 2 2
left_child=2 4 3 13 10 -3 12 11 9 -6 -2 -8 -4 -1
right_child=1 5 6 -5 8 -7 7 -9 -10 -11 -12 -13 -14 -15
leaf_value=-0.069424680603161967 -0.029426430545805377 0.14676156067515247 0.0059046597109567852 -0.077719289979193001 0.022070586223074569 0.47481437049611191 -0.042327657717076875 -0.073704750637919744 -0.033826135232272118 0.071602747893466365 0.004646096390764738 0.0063121308705979028 -0.05240964485845348 -0.09149048470707552
leaf_weight=138 515 704 157 920 1660 1092 425 209 185 408 741 72 973 221
leaf_count=138 515 704 157 920 1660 1092 425 209 185 408 741 72 973 221
internal_value=0.000355226 0.00905203 -0.014453 -0.0225809 0.002776 0.021309 -0.00878595 -0.01367 0.00514913 0.00605948 -0.00147373 -0.0100624 -0.00572655 -0.013429
internal_weight=8420 5305 3115 1279 3509 1796 1836 706 2253 2068 1256 497 1130 359
internal_count=8420 5305 3115 1279 3509 1796 1836 706 2253 2068 1256 497 1130 359
is_linear=0
shrinkage=0.03


Tree=25
num_leaves=15
num_cat=0
split_feature=7 7 7 8 7 11 6 8 2 13 13 7 16 11
split_gain=1171.95 440.366 161.054 45.4509 41.6938 36.7187 28.1851 27.7391 24.1827 20.1926 18.0121 15.9995 12.3744 12.5332
threshold=6.1435714285714296 16.005952380000004 2.5642857142857145 1.0000000180025095e-35 30.270714285714288 1.0000000180025095e-35 12.345000000000001 1.0000000180025095e-35 25.500000000000004 13.350000000000003 17.550000000000004 9.0009285714285738 4.3142857142857149 1.0000000180025095e-35
decision_type=2 2 2 2 2 2 2 2 2 2 2 2 2 2
left_child=2 5 3 10 -3 6 11 12 9 -9 -1 -2 -4 -14
right_child=1 4 7 -5 -6 -7 -8 8 -10 -11 -12 -13 13 -15
leaf_value=-0.052662107830817657 0.001021930867533909 0.15242225981774846 0.005727519919628072 -0.075387711279817221 0.5222499892774688 -0.032158827426176512 0.060475942358046736 -0.069658300096749823 -0.066689140727547738 -0.013993080826921434 -0.086785348405450741 0.025824184174731153 -0.012882625394957773 -0.069122890079370433
leaf_weight=101 1345 854 157 920 942 524 609 136 297 273 258 1031 279 694
leaf_count=101 1345 854 157 920 942 524 609 136 297 273 258 1031 279 694
internal_value=0.000248337 0.00882582 -0.0143567 -0.022534 0.0209081 0.00263921 0.00392663 -0.00865523 -0.01333 -0.0085599 -0.013429 0.00244571 -0.00572655 -0.00698972
internal_weight=8420 5305 3115 1279 1796 3509 2985 1836 706 409 359 2376 1130 973
internal_count=8420 5305 3115 1279 1796 3509 2985 1836 706 409 359 2376 1130 973
is_linear=0
shrinkage=0.03


Tree=26
num_leaves=15
num_cat=0
split_feature=7 9 7 8 11 7 6 8 0 13 7 4 13 0
split_gain=1137.19 427.543 165.313 46.6729 38.3749 35.1707 31.683 27.432 20.8559 17.4551 16.3549 13.621 12.6577 12.5827
threshold=6.1435714285714296 1.0000000180025095e-35 2.5642857142857145 1.0000000180025095e-35 1.0000000180025095e-35 33.20178571428572 12.345000000000001 1.0000000180025095e-35 7.5000000000000009 17.550000000000004 9.0009285714285738 2.0100000000000002 9.4500000000000011 7.5000000000000009
decision_type=2 2 2 2 2 2 2 2 2 2 2 2 2 2
left_child=2 4 3 9 6 13 10 -4 12 -1 -2 -8 -9 -3
right_child=1 5 7 -5 -6 -7 11 8 -10 -11 -12 -13 -14 -15
leaf_value=-0.051082244595893118 0.00099127294150789234 0.16694401851602278 -0.039902882375146893 -0.0731260799414227 -0.031194062603391217 0.54315242825881271 -0.053672685071952914 -0.075465446272886177 -0.070010774410893858 -0.084181787953287221 0.025945502472815542 0.0710954626907703 -0.034847559524181643 0.22632669195071825
leaf_weight=101 1345 610 1130 920 524 792 30 54 149 258 1086 636 503 282
leaf_count=101 1345 610 1130 920 524 792 30 54 149 258 1086 636 503 282
internal_value=0.000184204 0.00863355 -0.0142026 -0.0224871 0.0028227 0.0211229 0.00409461 -0.00842647 -0.0130751 -0.0132618 0.00250144 0.0098964 -0.0103788 0.0170078
internal_weight=8420 5305 3115 1279 3621 1684 3097 1836 706 359 2431 666 557 892
internal_count=8420 5305 3115 1279 3621 1684 3097 1836 706 359 2431 666 557 892
is_linear=0
shrinkage=0.03


Tree=27
num_leaves=15
num_cat=0
split_feature=7 9 7 11 7 6 7 6 16 13 1 4 4 14
split_gain=1096.97 408.325 167.397 43.8673 37.0505 36.8366 22.8007 20.2448 20.1397 16.5612 14.5349 13.8721 13.5775 11.7071
threshold=6.1435714285714296 1.0000000180025095e-35 2.5642857142857145 1.0000000180025095e-35 33.20178571428572 6.3465000000000007 12.005428571428572 5.0300000000000011 3.785714285714286 17.550000000000004 5.5000000000000009 3.2500000000000004 6.0215000000000005 0.8500000000000002
decision_type=2 2 2 2 2 2 2 2 2 2 2 2 2 2
left_child=2 5 3 -1 -3 10 12 8 -4 -5 -2 -8 -7 -12
right_child=1 4 7 9 -6 6 11 -9 -10 -11 13 -13 -14 -15
leaf_value=-0.068213592009356075 8.650708060588208e-05 0.18656853873469317 0.0084447807932936225 -0.050581662308447753 0.52685785541104824 -0.00084523590405541685 -0.058311866418919771 -0.0207925604377464 -0.057892139867829616 -0.081656334314688606 0.026598432442839551 0.093171642931468554 0.024398997738368261 -0.048545253435608955
leaf_weight=921 1061 892 59 100 792 562 11.999999999999998 649 1128 258 31 331 1440 184
leaf_count=921 1061 892 59 100 792 562 12 649 1128 258 31 331 1440 184
internal_value=0.000120071 0.00841866 -0.01401 -0.0223464 0.0206241 0.00273985 0.00497271 -0.00819771 -0.0105316 -0.0133827 -0.00135658 0.0121312 0.00374176 -0.00846977
internal_weight=8420 5305 3115 1279 1684 3621 2345 1836 1187 358 1276 343 2002 215
internal_count=8420 5305 3115 1279 1684 3621 2345 1836 1187 358 1276 343 2002 215
is_linear=0
shrinkage=0.03


Tree=28
num_leaves=15
num_cat=0
split_feature=5 6 8 4 11 13 2 13 11 8 6 1 13 6
split_gain=958.705 335.52 268.948 65.9343 52.8803 39.0075 48.2795 34.8935 24.8648 22.6448 21.1549 18.3849 14.711 13.5563
threshold=6.3350000000000009 24.450000000000003 1.0000000180025095e-35 11.005000000000001 1.0000000180025095e-35 9.9500000000000011 25.500000000000004 14.050000000000002 1.0000000180025095e-35 1.0000000180025095e-35 20.950000000000003 5.5000000000000009 17.550000000000004 12.002500000000001
decision_type=2 2 2 2 2 2 2 2 2 2 2 2 2 2
left_child=2 3 4 8 10 -4 -7 -6 9 -2 11 -1 -3 -5
right_child=1 12 5 13 7 6 -8 -9 -10 -11 -12 -13 -14 -15
leaf_value=0.010956847556938598 0.01957193570752282 0.44315085935706033 -0.086338969304469215 0.032179311205017186 -0.023221829455146014 -0.030173705976693384 -0.063096271002117149 -0.079206644285247957 -0.036509580584775582 -0.027948824931924757 0.16362077973058534 -0.051543990829205369 0.19240967121147382 0.11155398831187352
leaf_weight=824 1611 905 660 618 567 354 542 649 402 126 39 195 290 638
leaf_count=824 1611 905 660 618 567 354 542 649 402 126 39 195 290 638
internal_value=-6.05701e-06 0.00923987 -0.011089 0.00442445 -0.00450792 -0.0207012 -0.0165971 -0.00877549 0.00121599 0.00277547 0.000388469 -0.000432777 0.022913 0.00988137
internal_weight=8420 4590 3830 3395 2274 1556 896 1216 2139 1737 1058 1019 1195 1256
internal_count=8420 4590 3830 3395 2274 1556 896 1216 2139 1737 1058 1019 1195 1256
is_linear=0
shrinkage=0.03


Tree=29
num_leaves=15
num_cat=0
split_feature=5 6 8 4 11 13 6 11 8 5 1 5 16 0
split_gain=891.914 322.553 240.792 63.6007 47.7239 31.8854 30.1863 24.2449 22.2616 21.501 21.5653 16.5359 14.1521 23.3194
threshold=6.3350000000000009 24.450000000000003 1.0000000180025095e-35 11.005000000000001 1.0000000180025095e-35 14.050000000000002 4.3615000000000004 1.0000000180025095e-35 1.0000000180025095e-35 0.76666666650000004 5.5000000000000009 18.366666665000004 6.8071428571428578 7.5000000000000009
decision_type=2 2 2 2 2 2 2 2 2 2 2 2 2 2
left_child=2 3 4 7 9 -6 12 8 -2 -1 -11 -3 -4 -14
right_child=1 11 6 -5 5 -7 -8 -9 -10 10 -12 -13 13 -15
leaf_value=0.11943756077238225 0.018984777636297131 0.095691316457527972 -0.088862422321625278 0.064595214184917843 -0.022525174571491637 -0.076830444956690516 -0.031660018418051765 -0.035414293167232318 -0.027110360183967008 0.007600910035520156 -0.057298309822865622 0.39522251867735186 -0.056230848948922149 -0.064021878595499557
leaf_weight=89 1611 113 425 1256 567 649 272 402 126 793 176 1082 437 422
leaf_count=89 1611 113 425 1256 567 649 272 402 126 793 176 1082 437 422
internal_value=8.44418e-05 0.00900458 -0.0106034 0.00428306 -0.00437599 -0.0084301 -0.0196986 0.00113184 0.00267185 0.000275047 -0.00101238 0.0224109 -0.0216285 -0.0193725
internal_weight=8420 4590 3830 3395 2274 1216 1556 2139 1737 1058 969 1195 1284 859
internal_count=8420 4590 3830 3395 2274 1216 1556 2139 1737 1058 969 1195 1284 859
is_linear=0
shrinkage=0.03


Tree=30
num_leaves=15
num_cat=0
split_feature=7 7 6 8 10 12 3 3 7 16 7 14 5 16
split_gain=933.585 419.945 76.6556 67.3086 51.9799 29.129 25.0821 21.4187 20.1775 18.2696 16.7599 16.7367 16.1663 13.2333
threshold=11.858660714285717 4.007142857142858 24.450000000000003 1.0000000180025095e-35 1.0000000180025095e-35 1.0000000180025095e-35 1.0000000180025095e-35 1.0000000180025095e-35 2.077380952285715 20.035714285714288 38.240142857142864 1.0500000000000003 5.3450000000000006 27.357142857142858
decision_type=2 2 2 2 2 2 2 2 2 2 2 2 2 2
left_child=1 3 13 9 5 11 -7 -6 -5 -1 -4 -3 -9 -2
right_child=2 4 10 8 7 6 -8 12 -10 -11 -12 -13 -14 -15
leaf_value=-0.05487368329459956 0.10078506468807705 0.0045288434240083218 0.24215097562814344 -0.074282726514188643 0.0073529396226638781 0.018110653020713866 -0.033323155065972304 -0.027310735193422076 -0.058764886000250462 -0.074525531607989803 0.59315099851632702 -0.039295512680866035 0.0581121996482932 -0.03243070883249146
leaf_weight=400 929 245 699 723 1139 921 369 62 604 346 490 1069 403 21
leaf_count=400 929 245 699 723 1139 921 369 62 604 346 490 1069 403 21
internal_value=0.000169952 -0.00565849 0.0172889 -0.0167106 -0.00021174 -0.00283065 0.000365116 0.00403429 -0.0207694 -0.00947855 0.0223726 -0.00597489 0.00946452 0.0109168
internal_weight=8420 6281 2139 2073 4208 2604 1290 1604 1327 746 1189 1314 465 950
internal_count=8420 6281 2139 2073 4208 2604 1290 1604 1327 746 1189 1314 465 950
is_linear=0
shrinkage=0.03


Tree=31
num_leaves=15
num_cat=0
split_feature=7 7 6 8 10 12 1 16 1 1 0 16 7 14
split_gain=899.585 405.913 76.3055 62.4121 48.143 27.4312 24.3496 23.6928 22.501 20.189 20.0468 18.861 17.033 16.4731
threshold=12.005428571428572 4.007142857142858 24.450000000000003 1.0000000180025095e-35 1.0000000180025095e-35 1.0000000180025095e-35 5.5000000000000009 6.5071428571428589 5.5000000000000009 4.5000000000000009 7.5000000000000009 20.035714285714288 38.680714285714295 19.450000000000003
decision_type=2 2 2 2 2 2 2 2 2 2 2 2 2 2
left_child=1 3 8 11 5 13 -7 -5 -2 -6 -9 -1 -4 -3
right_child=2 4 12 7 9 6 -8 10 -10 -11 -12 -13 -14 -15
leaf_value=-0.053227472795761573 0.11061284410710069 -0.026317307624208572 0.23909816777839341 -0.083968067856550851 0.0071233161002269615 0.012988191836436904 -0.045586825212785162 -0.050085525994190791 -0.00082613895677795311 0.048768988210078627 -0.06007935540065798 -0.072289765659750121 0.57835642278447008 -0.068447426495246849
leaf_weight=400 776 1257 719 417 1154 1112 186 438 145 467 472 346 470 61
leaf_count=400 776 1257 719 417 1154 1112 186 438 145 467 472 346 470 61
internal_value=0.000184204 -0.0054851 0.0171427 -0.0163632 -0.000160727 -0.00268005 0.000409091 -0.020272 0.0106417 0.00389944 -0.0175286 -0.00939812 0.0221707 -0.00572914
internal_weight=8420 6310 2110 2073 4237 2616 1298 1327 921 1621 910 746 1189 1318
internal_count=8420 6310 2110 2073 4237 2616 1298 1327 921 1621 910 746 1189 1318
is_linear=0
shrinkage=0.03


Tree=32
num_leaves=15
num_cat=0
split_feature=7 7 7 7 7 8 8 10 1 13 7 16 1 16
split_gain=856.826 337.649 128.426 47.1182 29.5734 27.0713 23.2085 19.215 20.1866 18.9072 14.9203 12.3804 11.7391 11.0542
threshold=6.2810714285714289 23.72023809571429 2.5642857142857145 12.005428571428572 38.680714285714295 1.0000000180025095e-35 1.0000000180025095e-35 1.0000000180025095e-35 4.5000000000000009 17.550000000000004 5.2820238095238103 6.8785714285714299 5.5000000000000009 27.63571428571429
decision_type=2 2 2 2 2 2 2 2 2 2 2 2 2 2
left_child=2 3 6 7 -3 -4 9 -2 -9 -1 -7 -8 13 -5
right_child=1 4 5 12 -6 10 11 8 -10 -11 -12 -13 -14 -15
leaf_value=-0.043416882585252975 -0.0047121918565184596 0.23489320197144781 -0.030478695357385524 0.094455321701133022 0.55800577587730316 -0.045387489538102219 -0.081449025820854337 0.0064615181426333195 0.048137752481351409 -0.070121072689957611 -0.01317508501583017 -0.055251864056743254 0.0047916319090913718 -0.038544548850600185
leaf_weight=101 1618 827 1149 648 516 615 438 1102 450 258 97 482 108 10.999999999999998
leaf_count=101 1618 827 1149 648 516 615 438 1102 450 258 97 482 108 11
internal_value=0.000105819 0.00748693 -0.0123029 0.00305334 0.0204773 -0.00726545 -0.0196255 0.00143565 0.00382152 -0.0130947 -0.0118694 -0.0221641 0.00972751 0.0112307
internal_weight=8420 5280 3140 3937 1343 1861 1279 3170 1552 359 712 920 767 659
internal_count=8420 5280 3140 3937 1343 1861 1279 3170 1552 359 712 920 767 659
is_linear=0
shrinkage=0.03


Tree=33
num_leaves=15
num_cat=0
split_feature=7 7 7 7 8 7 8 6 2 13 6 5 13 16
split_gain=832.315 323.437 132.488 44.9065 27.3701 26.9895 23.2085 20.9299 19.5924 18.9072 15.3781 13.8463 13.7824 12.3804
threshold=6.2810714285714289 23.72023809571429 2.5642857142857145 12.005428571428572 1.0000000180025095e-35 38.680714285714295 1.0000000180025095e-35 5.5025000000000004 29.500000000000004 17.550000000000004 25.025000000000002 3.3450000000000002 9.4500000000000011 6.8785714285714299
decision_type=2 2 2 2 2 2 2 2 2 2 2 2 2 2
left_child=2 3 6 7 -4 10 9 11 12 -1 -3 -2 -6 -8
right_child=1 5 4 -5 8 -7 13 -9 -10 -11 -12 -13 -14 -15
leaf_value=-0.042114376107695396 -0.041291381570491899 0.1388407118785511 -0.029564334496663961 0.074690809255450852 -0.062560487095086645 0.54126560260098411 -0.079005555046228707 0.014798572901993453 -0.057433190566433333 -0.068017440509258884 0.26239993224257718 -0.0015298129723811593 -0.023542588982363298 -0.053594308135040958
leaf_weight=101 208 267 1149 767 54 516 438 2232 184 258 560 730 474 482
leaf_count=101 208 267 1149 767 54 516 438 2232 184 258 560 730 474 482
internal_value=4.16865e-05 0.00731648 -0.0121882 0.00297714 -0.007072 0.0200305 -0.0196255 0.00139779 -0.0117008 -0.0130947 0.0166397 -0.00235714 -0.00873295 -0.0221641
internal_weight=8420 5280 3140 3937 1861 1343 1279 3170 712 359 827 938 528 920
internal_count=8420 5280 3140 3937 1861 1343 1279 3170 712 359 827 938 528 920
is_linear=0
shrinkage=0.03


Tree=34
num_leaves=15
num_cat=0
split_feature=7 7 7 6 7 8 8 11 6 16 14 4 16 2
split_gain=795.356 302.894 140.481 42.9775 25.8333 24.4335 22.8712 20.9881 16.3338 15.903 13.9715 14.6624 13.6845 12.9016
threshold=6.2810714285714289 23.72023809571429 2.5642857142857145 12.345000000000001 38.680714285714295 1.0000000180025095e-35 1.0000000180025095e-35 1.0000000180025095e-35 24.050000000000004 1.0000000000000002 17.850000000000005 11.335000000000003 20.035714285714288 25.500000000000004
decision_type=2 2 2 2 2 2 2 2 2 2 2 2 2 2
left_child=2 3 6 9 8 -4 12 10 -3 -2 11 -5 -1 -7
right_child=1 4 5 7 -6 13 -8 -9 -10 -11 -12 -13 -14 -15
leaf_value=-0.047694933308918795 0.055755413001363059 0.11258591497978654 -0.028677404461764047 0.037695834017365912 0.52502763452295464 -0.024236093062248276 -0.056854147207823801 -0.034501270626596775 0.24881696583207777 0.0011910606880385899 0.021089910671342818 0.10247300750802119 -0.067937339054393628 -0.0530262713945324
leaf_weight=138 221 240 1149 369 516 415 920 76 587 2662 196 413 221 297
leaf_count=138 221 240 1149 369 516 415 920 76 587 2662 196 413 221 297
internal_value=3.45606e-05 0.00714602 -0.0119207 0.00294666 0.0194497 -0.00665287 -0.0195786 0.00813188 0.0161318 0.00104787 0.00931595 0.0111138 -0.0130947 -0.0110267
internal_weight=8420 5280 3140 3937 1343 1861 1279 1054 827 2883 978 782 359 712
internal_count=8420 5280 3140 3937 1343 1861 1279 1054 827 2883 978 782 359 712
is_linear=0
shrinkage=0.03


Tree=35
num_leaves=15
num_cat=0
split_feature=7 9 7 14 6 8 8 13 6 4 16 2 13 13
split_gain=758.646 281.939 149.035 45.9277 26.4688 22.8712 21.3235 18.9072 17.1154 16.0712 12.8359 12.1952 14.6781 11.1864
threshold=6.2810714285714289 1.0000000180025095e-35 2.5642857142857145 15.550000000000002 8.0610000000000017 1.0000000180025095e-35 1.0000000180025095e-35 17.550000000000004 35.281000000000006 11.183750000000002 6.8785714285714299 25.500000000000004 13.350000000000003 30.000000000000004
decision_type=2 2 2 2 2 2 2 2 2 2 2 2 2 2
left_child=2 4 5 8 -2 7 -4 -1 -3 -6 -7 12 -8 -5
right_child=1 3 6 13 9 10 11 -9 -10 -11 -12 -13 -14 -15
leaf_value=-0.039420096825196982 -0.0012379692875325609 0.24229787874052561 -0.027817082327911136 0.08685241108074826 0.016466401436859766 -0.074929763978607136 -0.055394406942234242 -0.063938797122349303 0.42679904113163353 0.052872618979735692 -0.05028085447475502 -0.051435483252696423 -0.0059212738867087727 -0.060406670207592723
leaf_weight=101 1831 653 1149 425 1177 438 137 258 599 588 482 297 278 6.9999999999999991
leaf_count=101 1831 653 1149 425 1177 438 137 258 599 588 482 297 278 7
internal_value=-1.31829e-05 0.00693011 -0.0116914 0.0170612 0.00218326 -0.0195786 -0.00626599 -0.0130947 0.0199768 0.0048051 -0.0220989 -0.0103525 -0.00699036 0.00859028
internal_weight=8420 5280 3140 1684 3596 1279 1861 359 1252 1765 920 712 415 432
internal_count=8420 5280 3140 1684 3596 1279 1861 359 1252 1765 920 712 415 432
is_linear=0
shrinkage=0.03


Tree=36
num_leaves=15
num_cat=0
split_feature=7 7 7 6 6 13 8 16 13 16 16 14 4 7
split_gain=735.995 229.314 202.431 43.2396 29.4026 29.384 22.5364 19.7161 18.9072 13.7694 12.3379 12.2174 15.1591 11.3535
threshold=7.8565714285714288 2.5642857142857145 23.72023809571429 5.3450000000000006 12.676500000000003 17.450000000000003 1.0000000180025095e-35 3.785714285714286 17.550000000000004 -0.88571428571428568 6.8785714285714299 17.850000000000005 11.335000000000003 41.441928571428576
decision_type=2 2 2 2 2 2 2 2 2 2 2 2 2 2
left_child=1 6 4 7 9 13 8 -3 -1 -2 -8 12 -6 -4
right_child=2 3 5 -5 11 -7 10 -9 -10 -11 -12 -13 -14 -15
leaf_value=-0.038237493920441082 0.064418762492636381 0.013005141225280788 0.28206123907416492 -0.00083271169776201861 0.03538418232148105 0.12636772125593232 -0.07268187105924892 -0.04544430442847535 -0.062020633208678823 0.0078173135078652405 -0.048772428840512375 0.017711939566906133 0.10282869389549525 0.58347276558876626
leaf_weight=101 108 111 611 1334 304 353 438 1488 258 1874 482 174 405 379
leaf_count=101 108 111 611 1334 304 353 438 1488 258 1874 482 174 405 379
internal_value=-6.30641e-05 -0.00892949 0.00880965 -0.0043031 0.00430052 0.0184222 -0.0195317 -0.00763039 -0.0130947 0.00226589 -0.0220337 0.0088573 0.0106079 0.0210818
internal_weight=8420 4212 4208 2933 2865 1343 1279 1599 359 1982 920 883 709 990
internal_count=8420 4212 4208 2933 2865 1343 1279 1599 359 1982 920 883 709 990
is_linear=0
shrinkage=0.03


Tree=37
num_leaves=15
num_cat=0
split_feature=7 7 7 7 6 8 13 6 7 8 16 1 6 1
split_gain=714.557 307.902 85.2319 55.1123 31.0447 22.5364 18.9072 14.5251 14.1798 13.4051 12.3379 11.7939 11.9927 11.7197
threshold=4.5642857142857158 13.612857142857145 2.5642857142857145 33.20178571428572 5.0300000000000011 1.0000000180025095e-35 17.550000000000004 35.281000000000006 7.8565714285714288 1.0000000180025095e-35 6.8785714285714299 5.5000000000000009 18.366666665000004 4.5000000000000009
decision_type=2 2 2 2 2 2 2 2 2 2 2 2 2 2
left_child=2 4 5 7 8 6 -1 11 13 -4 -7 -3 -13 -2
right_child=1 3 9 -5 -6 10 -8 -9 -10 -11 -12 12 -14 -15
leaf_value=-0.037090369102827855 -0.012649113464919126 0.10093815131972524 -0.045833585135077105 0.40930516515924065 0.011656321182557772 -0.070501414927471459 -0.060160014212418463 0.19285663870628264 0.0027274667793280561 -0.043114435944789246 -0.047309255975297004 -0.059125828288372123 0.15543549731763345 -0.04948559883409246
leaf_weight=101 582 832 523 792 2799 438 258 178 541 504 482 79 64 247
leaf_count=101 582 832 523 792 2799 438 258 178 541 504 482 79 64 247
internal_value=-0.000127197 0.00523896 -0.0143586 0.0150956 0.000638283 -0.0195317 -0.0130947 0.0108942 -0.00305912 -0.0079075 -0.0220337 0.00943692 0.00140559 -0.00552593
internal_weight=8420 6114 2306 1945 4169 1279 359 1153 1370 1027 920 975 143 829
internal_count=8420 6114 2306 1945 4169 1279 359 1153 1370 1027 920 975 143 829
is_linear=0
shrinkage=0.03


Tree=38
num_leaves=15
num_cat=0
split_feature=7 7 7 7 8 11 6 6 13 6 13 16 8 16
split_gain=666.914 289.609 80.63 47.978 32.1471 28.1093 21.3781 15.9853 13.1104 12.2019 11.9404 11.3705 11.1707 9.88247
threshold=4.5642857142857158 13.612857142857145 2.5642857142857145 34.891928571428579 1.0000000180025095e-35 1.0000000180025095e-35 4.1420000000000003 43.633333333500012 17.550000000000004 12.345000000000001 30.000000000000004 6.8785714285714299 1.0000000180025095e-35 0.83571428571428585
decision_type=2 2 2 2 2 2 2 2 2 2 2 2 2 2
left_child=2 5 4 7 8 6 -2 10 -1 13 -3 -6 -4 -8
right_child=1 3 12 -5 11 -7 9 -9 -10 -11 -12 -13 -14 -15
leaf_value=-0.03597765802974303 -0.014516317813011121 0.10167040921538678 -0.044458577581024783 0.40578521207542956 -0.068386372479647309 -0.031171855652699969 0.051607914709349952 0.25161489321135272 -0.058355213786045905 0.037273161166437557 -0.05735205343972094 -0.045889978296038088 -0.041821002866445585 0.006747291211929447
leaf_weight=101 624 1131 523 717 438 858 117 90 258 567 6.9999999999999991 482 504 2003
leaf_count=101 624 1131 523 717 438 858 117 90 258 567 7 482 504 2003
internal_value=-0.000141449 0.00504269 -0.0138903 0.0146021 -0.0189218 0.000580715 0.00183661 0.0109862 -0.0112563 0.003 0.0100097 -0.0219033 -0.00761538 0.00194858
internal_weight=8420 6114 2306 1945 1279 4169 3311 1228 359 2687 1138 920 1027 2120
internal_count=8420 6114 2306 1945 1279 4169 3311 1228 359 2687 1138 920 1027 2120
is_linear=0
shrinkage=0.03


Tree=39
num_leaves=15
num_cat=0
split_feature=7 7 7 7 8 11 7 5 14 13 8 7 13 2
split_gain=652.299 272.204 81.8024 43.9434 32.7746 24.063 17.0576 14.6937 14.3936 12.6357 12.4449 10.8599 10.4569 10.1549
threshold=4.5642857142857158 13.612857142857145 2.5642857142857145 33.20178571428572 1.0000000180025095e-35 1.0000000180025095e-35 8.142214285714287 19.010000000000002 2.5500000000000003 17.550000000000004 1.0000000180025095e-35 47.388785714285724 8.3500000000000032 33.500000000000007
decision_type=2 2 2 2 2 2 2 2 2 2 2 2 2 2
left_child=2 5 4 7 9 6 -2 8 -3 -1 -4 -5 -6 -9
right_child=1 3 10 11 12 -7 -8 13 -10 -11 -12 -13 -14 -15
leaf_value=-0.034898328288850748 -0.001695830959536586 0.095318888439306804 -0.043124820253594036 0.31269497039528665 -0.066334781305257884 -0.03023669998311896 0.019161562141829087 0.13417917921231717 0.037933646584693718 -0.056604557372464531 -0.04056637278045222 0.66739092470982497 -0.04451327894715694 0.18969285136624253
leaf_weight=101 1506 83 523 576 514 858 1805 501 375 258 504 216 406 194
leaf_count=101 1506 83 523 576 514 858 1805 501 375 258 504 216 406 194
internal_value=-0.000162827 0.00496418 -0.0137602 0.0142319 -0.018828 0.000638283 0.00180036 0.0104779 0.00626856 -0.0110891 -0.00744012 0.0196856 -0.021838 0.0132388
internal_weight=8420 6114 2306 1945 1279 4169 3311 1153 458 359 1027 792 920 695
internal_count=8420 6114 2306 1945 1279 4169 3311 1153 458 359 1027 792 920 695
is_linear=0
shrinkage=0.03


Tree=40
num_leaves=15
num_cat=0
split_feature=7 7 7 7 8 10 1 12 1 5 1 16 14 8
split_gain=623.323 252.712 81.7946 41.6946 33.6398 23.2579 19.6832 17.5522 25.6428 14.1482 14.9886 16.8788 12.8767 12.4168
threshold=4.5642857142857158 13.612857142857145 2.5642857142857145 34.335669642857148 1.0000000180025095e-35 1.0000000180025095e-35 4.5000000000000009 1.0000000180025095e-35 5.5000000000000009 19.010000000000002 5.5000000000000009 27.357142857142858 19.450000000000003 1.0000000180025095e-35
decision_type=2 2 2 2 2 2 2 2 2 2 2 2 2 2
left_child=2 5 4 9 -1 7 -7 12 -9 10 11 -3 -2 -4
right_child=1 3 13 -5 -6 6 -8 8 -10 -11 -12 -13 -14 -15
leaf_value=-0.054906420651290588 -0.019505388424161437 0.074774116253603612 -0.041831075645986218 0.38145044327671473 -0.045386812814769112 0.0049407249480884017 0.041541113959681866 0.016770574757694109 -0.043837327537361845 0.14476564469259215 -0.040261741895885252 -0.06297863793931785 -0.063742009740748853 -0.039349381597038664
leaf_weight=359 1078 362 523 742 920 1193 480 1183 195 741 87 12.999999999999998 40 504
leaf_count=359 1078 362 523 742 920 1193 480 1183 195 741 87 13 40 504
internal_value=-0.000234086 0.00477772 -0.013526 0.0137075 -0.0185934 0.000609499 0.00334788 -0.00122236 0.00103846 0.0102419 0.00608442 0.008696 -0.00401699 -0.00720643
internal_weight=8420 6114 2306 1945 1279 4169 1673 2496 1378 1203 462 375 1118 1027
internal_count=8420 6114 2306 1945 1279 4169 1673 2496 1378 1203 462 375 1118 1027
is_linear=0
shrinkage=0.03


Tree=41
num_leaves=15
num_cat=0
split_feature=7 7 7 7 8 10 16 12 16 13 13 6 16 2
split_gain=606.639 248.648 72.5182 45.595 33.2345 26.0374 21.8031 14.4194 17.5938 11.7126 11.2607 11.3143 10.8216 10.2614
threshold=4.2785714285714294 12.750000000000002 2.5642857142857145 30.270714285714288 1.0000000180025095e-35 1.0000000180025095e-35 15.478571428571431 1.0000000180025095e-35 23.38571428571429 17.550000000000004 30.000000000000004 8.6650000000000009 6.8785714285714299 6.5000000000000009
decision_type=2 2 2 2 2 2 2 2 2 2 2 2 2 2
left_child=2 5 4 10 9 7 -5 8 -2 -1 11 13 -6 -3
right_child=1 3 -4 6 12 -7 -8 -9 -10 -11 -12 -13 -14 -15
leaf_value=-0.032204185820646519 -0.018227178294718361 0.085517311853136477 -0.039600205589610728 0.38157570808429125 -0.062983133481657086 0.01490184266158831 0.1170506760408342 0.0047135408134084365 -0.083042463532097516 -0.053259228031751871 -0.055561648977193574 0.093677652103239431 -0.041816276194299166 -0.028820361161946584
leaf_weight=101 1185 22 873 775 438 1651 167 1340 66 258 6.9999999999999991 962 482 93
leaf_count=101 1185 22 873 775 438 1651 167 1340 66 258 7 962 482 93
internal_value=-0.000248337 0.00446889 -0.0139921 0.013115 -0.0185465 0.000337341 0.0179522 -0.00153647 -0.00385372 -0.0107549 0.00890314 0.00915599 -0.0215772 0.000182609
internal_weight=8420 6268 2152 2026 1279 4242 942 2591 1251 359 1084 1077 920 115
internal_count=8420 6268 2152 2026 1279 4242 942 2591 1251 359 1084 1077 920 115
is_linear=0
shrinkage=0.03


Tree=42
num_leaves=15
num_cat=0
split_feature=8 9 11 13 2 16 6 16 13 16 5 2 5 5
split_gain=532.4 259.755 75.7918 67.0301 46.7878 37.2878 25.8741 20.2296 13.0985 12.4902 11.8891 11.7046 10.9094 11.4457
threshold=1.0000000180025095e-35 1.0000000180025095e-35 1.0000000180025095e-35 9.9500000000000011 26.500000000000004 15.200000000000001 12.345000000000001 17.621428571428577 17.650000000000002 1.0000000000000002 40.725000000000009 31.500000000000004 1.2250000000000003 3.8400000000000003
decision_type=2 2 2 2 2 2 2 2 2 2 2 2 2 2
left_child=1 2 6 -2 -5 10 9 12 -6 -1 -3 -7 -4 -14
right_child=3 5 7 4 8 11 -8 -9 -10 -11 -12 -13 13 -15
leaf_value=0.053951049853180645 -0.061093639477207362 0.21725371459132867 -0.060825140720198713 -0.012850946249908079 -0.047837311066581414 0.062109264225001438 0.041632579538097132 -0.051661451190799311 -0.04056178790847019 0.0033338042794650935 0.46542381359544538 0.1538175300753451 0.029998131031782956 -0.022681230730605326
leaf_weight=177 666 568 330 490 172 479 715 611 356 2476 392 245 152 591
leaf_count=177 666 568 330 490 172 479 715 611 356 2476 392 245 152 591
internal_value=-0.000369477 0.00340128 0 -0.0154578 -0.0106002 0.0136051 0.00259828 -0.00519656 -0.0168011 0.00122917 0.0174906 0.00844061 -0.00270363 -0.000674293
internal_weight=8420 6736 5052 1684 1018 1684 3368 1684 528 2653 960 724 1073 743
internal_count=8420 6736 5052 1684 1018 1684 3368 1684 528 2653 960 724 1073 743
is_linear=0
shrinkage=0.03


Tree=43
num_leaves=15
num_cat=0
split_feature=7 5 7 7 7 8 6 6 13 8 14 13 4 7
split_gain=509.106 208.624 59.8408 36.2831 29.5372 18.8932 18.2984 15.9008 12.9097 12.3607 11.0905 10.7561 10.5039 10.0055
threshold=4.5642857142857158 22.322666665000003 2.5642857142857145 9.0624285714285744 41.441928571428576 1.0000000180025095e-35 5.5025000000000004 12.676500000000003 17.550000000000004 1.0000000180025095e-35 17.750000000000004 6.0500000000000007 5.6815000000000007 9.1442857142857168
decision_type=2 2 2 2 2 2 2 2 2 2 2 2 2 2
left_child=2 3 5 6 -3 8 11 12 -1 -4 13 -2 -5 -9
right_child=1 4 9 7 -6 -7 -8 10 -10 -11 -12 -13 -14 -15
leaf_value=-0.029413306024421181 0.0040425725486214282 0.16042129961374962 -0.038615934750855042 -0.020823716208101441 0.48772662621363444 -0.041480920090643796 0.0070801397417767026 -0.060033038840213604 -0.050111607655075337 -0.036179702969063511 0.0057852438756376932 -0.030835386591777345 0.017369137764883698 0.072175162757844219
leaf_weight=101 212 980 523 170 379 920 1676 5.9999999999999991 258 504 158 879 1037 617
leaf_count=101 212 980 523 170 379 920 1676 6 258 504 158 879 1037 617
internal_value=-0.000134323 0.004395 -0.012147 0.00143028 0.0147616 -0.0164824 -0.000788218 0.00452264 -0.0105877 -0.00673905 0.007863 -0.00381393 0.00235377 0.00966453
internal_weight=8420 6114 2306 4755 1359 1279 2767 1988 359 1027 781 1091 1207 623
internal_count=8420 6114 2306 4755 1359 1279 2767 1988 359 1027 781 1091 1207 623
is_linear=0
shrinkage=0.03


Tree=44
num_leaves=15
num_cat=0
split_feature=5 5 8 6 6 16 11 5 2 2 2 16 0 1
split_gain=445.858 142.087 132.461 40.1109 28.5377 26.4029 21.7487 17.5389 16.4019 15.0111 12.5633 12.0894 12.0417 11.3431
threshold=6.447000000000001 24.050000000000004 1.0000000180025095e-35 3.5645000000000002 12.345000000000001 8.3500000000000032 1.0000000180025095e-35 50.020000000000003 37.500000000000007 39.500000000000007 33.500000000000007 2.2928571428571431 2.5000000000000004 2.5000000000000004
decision_type=2 2 2 2 2 2 2 2 2 2 2 2 2 2
left_child=2 4 5 8 -2 -1 13 -3 12 -8 -6 -12 -4 -7
right_child=1 7 3 -5 10 6 9 -9 -10 -11 11 -13 -14 -15
leaf_value=0.0077824942724563856 0.004628285707201414 0.18176037330322675 -0.053184880239402196 -0.021569710372641507 0.034575658166917177 0.019910246208493146 -0.053541601045744534 0.49809970353593525 -0.058016402690171838 0.0041536357199494708 -0.042333975622069725 0.077868758062843407 -0.036859975375475675 -0.024780639329133915
leaf_weight=711 2289 998 269 408 724 283 738 249 376 116 19 280 503 457
leaf_count=711 2289 998 269 408 724 283 738 249 376 116 19 280 503 457
internal_value=-0.000148575 0.00620333 -0.00765113 -0.0144158 0.00295018 -0.00308069 -0.00522647 0.0148364 -0.0172918 -0.00849063 0.0071173 0.012311 -0.0147552 -0.0014473
internal_weight=8420 4559 3861 1556 3312 2305 1594 1247 1148 854 1023 299 772 740
internal_count=8420 4559 3861 1556 3312 2305 1594 1247 1148 854 1023 299 772 740
is_linear=0
shrinkage=0.03


Tree=45
num_leaves=15
num_cat=0
split_feature=7 7 7 7 10 1 8 7 6 2 13 13 4 2
split_gain=469.978 189.602 56.5559 43.4167 21.3281 18.7006 17.4402 13.1529 12.8895 12.2102 11.9769 11.189 11.125 11.0017
threshold=4.5642857142857158 12.750000000000002 2.5642857142857145 33.20178571428572 1.0000000180025095e-35 4.5000000000000009 1.0000000180025095e-35 47.388785714285724 4.3615000000000004 32.500000000000007 17.550000000000004 29.450000000000003 2.4145000000000008 5.5000000000000009
decision_type=2 2 2 2 2 2 2 2 2 2 2 2 2 2
left_child=2 4 6 9 12 13 10 -5 -7 11 -1 -3 -2 -6
right_child=1 3 -4 7 5 8 -8 -9 -10 -11 -12 -13 -14 -15
leaf_value=-0.028764381671862238 -0.038952419814248455 0.061214689091678078 -0.035198861034740521 0.25497777650614534 0.029778548719100555 -0.045262381283641281 -0.039313458310319314 0.58094090812734944 0.043997562362302949 0.09586064916893676 -0.047002011394050747 -0.043746206788554162 -0.0018175627245539071 0.0013214582204625013
leaf_weight=101 421 845 1027 576 114 41 920 216 434 378 258 10.999999999999998 2016 1062
leaf_count=101 421 845 1027 576 114 41 920 216 434 378 258 11 2016 1062
internal_value=-0.000162827 0.00418891 -0.0117047 0.0116935 0.000467466 0.00310176 -0.0159195 0.0171856 0.00812842 0.00816126 -0.0102535 0.00615771 -0.0013135 0.00106378
internal_weight=8420 6114 2306 2026 4088 1651 1279 792 475 1234 359 856 2437 1176
internal_count=8420 6114 2306 2026 4088 1651 1279 792 475 1234 359 856 2437 1176
is_linear=0
shrinkage=0.03


Tree=46
num_leaves=15
num_cat=0
split_feature=7 7 7 7 6 8 15 7 7 14 8 5 1 2
split_gain=459.617 183.841 58.6785 41.6177 19.9364 17.4402 12.2567 11.8074 10.7397 11.8501 10.6066 10.4521 15.1663 10.6689
threshold=4.5642857142857158 13.351999999571431 2.5642857142857145 33.20178571428572 5.5025000000000004 1.0000000180025095e-35 20.700000000000006 47.388785714285724 8.4292857142857169 2.3500000000000001 1.0000000180025095e-35 18.812500000000004 5.5000000000000009 33.500000000000007
decision_type=2 2 2 2 2 2 2 2 2 2 2 2 2 2
left_child=2 4 5 11 6 -1 8 -5 9 -2 -4 12 -3 -13
right_child=1 3 10 7 -6 -7 -8 -9 -10 -11 -12 13 -14 -15
leaf_value=-0.045591951052229227 0.0087850154679641607 0.051384569026645947 -0.035439066466499469 0.24732844321096098 0.0096229293963415192 -0.038134054561009732 -0.094022622972132458 0.5635126808835289 0.0095531386234392005 -0.032936220523625673 -0.033466593009338581 0.1068529487232512 -0.045493589809583949 0.15436780504714848
leaf_weight=359 179 362 523 576 2720 920 14.999999999999998 216 425 802 504 529 86 204
leaf_count=359 179 362 523 576 2720 920 15 216 425 802 504 529 86 204
internal_value=-0.000212708 0.00409078 -0.0116266 0.0116275 0.000497706 -0.0159195 -0.00237931 0.0169583 -0.00208464 -0.00381346 -0.00627167 0.00804488 0.00439955 0.0102606
internal_weight=8420 6114 2306 1973 4141 1279 1421 792 1406 981 1027 1181 448 733
internal_count=8420 6114 2306 1973 4141 1279 1421 792 1406 981 1027 1181 448 733
is_linear=0
shrinkage=0.03


Tree=47
num_leaves=15
num_cat=0
split_feature=7 5 7 7 7 8 6 6 4 14 7 4 14 1
split_gain=448.639 188.112 49.8268 35.3571 24.6769 17.1479 15.1518 14.5484 12.5542 11.8092 9.74991 9.61299 9.72679 9.58845
threshold=4.2785714285714294 22.322666665000003 2.5642857142857145 9.0624285714285744 47.388785714285724 1.0000000180025095e-35 5.0300000000000011 12.676500000000003 20.950000000000003 17.750000000000004 9.1442857142857168 5.6815000000000007 18.850000000000005 5.5000000000000009
decision_type=2 2 2 2 2 2 2 2 2 2 2 2 2 2
left_child=2 3 5 6 8 -1 -2 11 -3 10 -9 12 -5 -13
right_child=1 4 -4 7 -6 -7 -8 9 -10 -11 -12 13 -14 -15
leaf_value=-0.044224192520662349 -0.019289045271564938 0.062274019323277793 -0.03344815480982255 -0.030519137716880501 0.54523229282762853 -0.03699003292417944 0.0038518059339010379 -0.060190705296471192 0.19298157400709423 0.00067674966965238783 0.065842704527282234 0.02445865663758998 0.041538330804912253 -0.014024831788188887
leaf_weight=359 1139 276 873 152 211 920 1782 5.9999999999999991 872 158 617 856 18 181
leaf_count=359 1139 276 873 152 211 920 1782 6 872 158 617 856 18 181
internal_value=-0.000276841 0.00377967 -0.0120962 0.00104319 0.0136578 -0.0158726 -0.00105478 0.00413028 0.0119085 0.00732522 0.00918299 0.00205551 -0.00453529 0.00314465
internal_weight=8420 6268 2152 4909 1359 1279 2921 1988 1148 781 623 1207 170 1037
internal_count=8420 6268 2152 4909 1359 1279 2921 1988 1148 781 623 1207 170 1037
is_linear=0
shrinkage=0.03


Tree=48
num_leaves=15
num_cat=0
split_feature=7 7 7 7 10 3 11 7 12 3 16 13 13 13
split_gain=443.293 176.525 50.5685 40.9442 21.7518 18.867 16.3902 12.6231 12.3656 16.6193 16.1988 12.0839 12.7156 11.2777
threshold=4.2785714285714294 13.351999999571431 2.5642857142857145 33.20178571428572 1.0000000180025095e-35 1.0000000180025095e-35 1.0000000180025095e-35 49.575000000000003 1.0000000180025095e-35 1.0000000180025095e-35 23.38571428571429 22.550000000000004 23.950000000000003 17.550000000000004
decision_type=2 2 2 2 2 2 2 2 2 2 2 2 2 2
left_child=2 4 6 11 8 -6 -1 -5 10 -10 -2 -3 -13 -8
right_child=1 3 -4 7 5 -7 13 -9 9 -11 -12 12 -14 -15
leaf_value=-0.035713826395066366 -0.01614799195818719 0.08968282926516756 -0.032444710165527871 0.23972320007855005 0.0037127633261132952 0.035537884148599784 -0.026238850964951033 0.57837525537824896 0.01734869027393551 -0.027458420525611371 -0.07509229375726223 -0.040738223045922957 0.046125097453300672 -0.042897466745042481
leaf_weight=921 1189 933 873 625 1192 478 100 167 979 391 66 80 168 258
leaf_count=921 1189 933 873 625 1192 478 100 167 979 391 66 80 168 258
internal_value=-0.000319596 0.00371267 -0.0120683 0.0111409 0.000298254 0.00297665 -0.0158726 0.016428 -0.00140229 0.000562774 -0.00355458 0.00758764 0.00165726 -0.0103659
internal_weight=8420 6268 2152 1973 4295 1670 1279 792 2625 1370 1255 1181 248 358
internal_count=8420 6268 2152 1973 4295 1670 1279 792 2625 1370 1255 1181 248 358
is_linear=0
shrinkage=0.03


Tree=49
num_leaves=15
num_cat=0
split_feature=7 5 7 7 7 8 6 11 1 10 5 13 13 15
split_gain=417.269 166.676 46.82 31.104 24.8703 14.6273 14.1694 12.7744 15.6324 17.5343 14.4603 12.3749 11.9769 11.9705
threshold=4.2785714285714294 22.025000000000002 2.5642857142857145 9.0624285714285744 47.388785714285724 1.0000000180025095e-35 5.5025000000000004 1.0000000180025095e-35 5.5000000000000009 1.0000000180025095e-35 0.76666666650000004 5.2500000000000009 17.550000000000004 9.2500000000000018
decision_type=2 2 2 2 2 2 2 2 2 2 2 2 2 2
left_child=2 3 5 6 -3 12 11 8 13 10 -10 -2 -1 -5
right_child=1 4 -4 7 -6 -7 -8 -9 9 -11 -12 -13 -14 -15
leaf_value=-0.02441980038557108 0.010542699880248326 0.14729461356024581 -0.031471368860562031 0.034181699074278274 0.51152406638145231 -0.034808917144602068 0.0040148496384644081 -0.027725061496021039 0.30656545785952105 0.045405628141470103 -0.058130985906074302 -0.027121469989632496 -0.041610542742691201 -0.014491596342803148
leaf_weight=101 188 1161 873 1441 211 920 1738 139 8.9999999999999982 103 167 995 258 116
leaf_count=101 188 1161 873 1441 211 920 1738 139 9 103 167 995 258 116
internal_value=-0.000390855 0.00352122 -0.0117895 0.000929534 0.0127631 -0.0154504 -0.00103423 0.00383848 0.0045049 -0.00201075 -0.00778977 -0.00356805 -0.0102535 0.00567823
internal_weight=8420 6268 2152 4896 1372 1279 2921 1975 1836 279 176 1183 359 1557
internal_count=8420 6268 2152 4896 1372 1279 2921 1975 1836 279 176 1183 359 1557
is_linear=0
shrinkage=0.03


Tree=50
num_leaves=15
num_cat=0
split_feature=7 7 7 6 5 8 1 2 2 4 7 13 14 6
split_gain=392.072 171.384 41.972 25.739 22.2853 17.8299 15.5824 15.0987 13.5205 12.997 12.0794 11.1608 10.9794 10.1277
threshold=3.4357142857142864 12.264761904785717 33.20178571428572 3.3450000000000002 6.3350000000000009 1.0000000180025095e-35 2.5000000000000004 33.500000000000007 37.500000000000007 4.5100000000000007 48.723214285714292 24.550000000000004 0.95000000000000007 12.995000000000003
decision_type=2 2 2 2 2 2 2 2 2 2 2 2 2 2
left_child=3 4 7 5 6 8 -2 -3 -1 -6 12 -8 -4 -9
right_child=1 2 10 -5 9 -7 11 13 -10 -11 -12 -13 -14 -15
leaf_value=-0.041134200203384652 0.00050503019123281144 0.049928622690108636 0.34669773643215318 -0.0311685004685807 -0.011622711088384986 -0.038727102644667118 -0.021739239602118942 0.019104584930321966 0.062192013093019201 0.013694893911137349 0.50067827572545787 -0.048069440413961634 0.18463034299897232 0.12673133187242736
leaf_weight=347 845 935 164 428 570 979 1089 84 34 1946 192 98 436 273
leaf_count=347 845 935 164 428 570 979 1089 84 34 1946 192 98 436 273
internal_value=-0.000412233 0.00294798 0.0100725 -0.0128809 -0.000314644 -0.0149051 -0.00265305 0.00672678 -0.00934646 0.00157035 0.0155189 -0.00487026 0.013385 0.0119916
internal_weight=8420 6632 2084 1788 4548 1360 2032 1292 381 2516 792 1187 600 357
internal_count=8420 6632 2084 1788 4548 1360 2032 1292 381 2516 792 1187 600 357
is_linear=0
shrinkage=0.03


Tree=51
num_leaves=15
num_cat=0
split_feature=4 6 6 8 16 8 6 11 16 0 2 4 0 0
split_gain=326.339 142.725 68.9887 31.2238 27.4709 17.6131 15.6314 14.8728 11.7317 11.0482 10.7522 10.115 9.21253 9.73135
threshold=4.5100000000000007 17.005000000000003 3.5645000000000002 1.0000000180025095e-35 15.350000000000003 1.0000000180025095e-35 26.671333333500005 1.0000000180025095e-35 -5.8999999999999995 9.5000000000000018 28.500000000000004 20.950000000000003 2.5000000000000004 6.5000000000000009
decision_type=2 2 2 2 2 2 2 2 2 2 2 2 2 2
left_child=2 5 3 -1 11 7 -4 8 -2 12 -7 -3 -5 -14
right_child=1 4 6 9 -6 10 -8 -9 -10 -11 -12 -13 13 -15
leaf_value=-0.039128200454308933 0.11362505886305208 0.059776208975640066 -0.017898955726236086 -0.04437047394488941 0.071998252301597579 -0.012015839066113018 0.10696591676321905 -0.025364941642048524 0.011715317226135422 -0.049565288850071366 -0.037241563652779988 0.25216901836536992 -0.028183912026722869 -0.031845098926808507
leaf_weight=615 22 203 1192 264 648 261 28 697 2809 320 62 837 228 234
leaf_count=615 22 203 1192 264 648 261 28 697 2809 320 62 837 228 234
internal_value=-0.000376603 0.00388175 -0.00856682 -0.0125473 0.0111558 0.000690989 -0.00314016 0.00130697 0.00227517 -0.0157084 -0.00600929 0.0141837 -0.013624 -0.0110195
internal_weight=8420 5539 2881 1661 1688 3851 1220 3528 2831 1046 323 1040 726 462
internal_count=8420 5539 2881 1661 1688 3851 1220 3528 2831 1046 323 1040 726 462
is_linear=0
shrinkage=0.03


Tree=52
num_leaves=15
num_cat=0
split_feature=5 5 6 4 6 5 2 2 4 2 9 14 13 1
split_gain=311.282 99.4816 85.896 27.2876 20.5379 20.0819 16.1809 15.8649 14.4254 11.1865 9.90935 9.70015 9.34782 8.96023
threshold=6.447000000000001 24.050000000000004 3.5645000000000002 4.995000000000001 11.786500000000002 40.962500000000013 42.500000000000007 9.5000000000000018 6.1975000000000007 33.500000000000007 1.0000000180025095e-35 16.750000000000004 6.3500000000000005 2.5000000000000004
decision_type=2 2 2 2 2 2 2 2 2 2 2 2 2 2
left_child=2 4 3 6 -2 11 -1 -4 -9 -6 13 -3 -5 -10
right_child=1 5 7 12 9 -7 -8 8 10 -11 -12 -13 -14 -15
leaf_value=-0.033554814879052715 0.0031641557195614565 0.14810136021169973 0.015882784449330341 0.011930339986795895 0.023137864875474187 0.33013358428920359 -0.048078330184569223 -0.028692083513111196 0.022869214506366128 0.061079339227414375 0.34497053322872545 0.021045474347738083 -0.036439251955072978 -0.012317041547477174
leaf_weight=1182 2177 638 269 99 802 467 298 883 291 333 13.999999999999998 142 422 403
leaf_count=1182 2177 638 269 99 802 467 298 883 291 333 14 142 422 403
internal_value=-0.000340974 0.00496622 -0.00660995 -0.010925 0.00224366 0.0121901 -0.0130074 -0.0019629 -0.00310559 0.0055163 7.20339e-05 0.00921923 -0.00499232 -0.000419308
internal_weight=8420 4559 3861 2001 3312 1247 1480 1860 1591 1135 708 780 521 694
internal_count=8420 4559 3861 2001 3312 1247 1480 1860 1591 1135 708 780 521 694
is_linear=0
shrinkage=0.03


Tree=53
num_leaves=15
num_cat=0
split_feature=7 6 7 7 5 1 11 0 6 1 13 10 5 14
split_gain=322.032 126.954 41.6519 22.1094 20.8148 15.4731 15.52 13.4044 10.1135 9.02336 12.3838 8.74273 12.0822 8.58616
threshold=4.5642857142857158 24.050000000000004 2.5642857142857145 10.000357142857144 40.962500000000013 5.5000000000000009 1.0000000180025095e-35 9.5000000000000018 5.0300000000000011 4.5000000000000009 18.150000000000002 1.0000000180025095e-35 25.345000000000002 13.65
decision_type=2 2 2 2 2 2 2 2 2 2 2 2 2 2
left_child=2 3 7 8 9 6 -5 -1 -2 10 -3 12 -7 -12
right_child=1 4 -4 5 -6 11 -8 -9 -10 -11 13 -13 -14 -15
leaf_value=-0.035337568949633344 -0.012725958452215344 0.12150458094881203 -0.028040450991324715 0.040494379260669136 0.33618891803860784 -0.06167434349397842 -0.030104444431779072 -0.046635980279032145 0.0050377053791534317 0.22111815046539382 -0.082899289187936931 0.063880556694557916 0.118676501127505 0.040927731111059844
leaf_weight=927 1201 460 1027 1236 413 149 74 352 2124 203 11.999999999999998 62 27 153
leaf_count=927 1201 460 1027 1236 413 149 74 352 2124 203 12 62 27 153
internal_value=-0.000355226 0.00324681 -0.00990937 0.00106321 0.0118139 0.00402519 0.00530611 -0.013527 -0.000313083 0.0090471 0.0072336 -0.00298739 -0.00642614 0.000127273
internal_weight=8420 6114 2306 4873 1241 1548 1310 1279 3325 828 625 238 176 165
internal_count=8420 6114 2306 4873 1241 1548 1310 1279 3325 828 625 238 176 165
is_linear=0
shrinkage=0.03


Tree=54
num_leaves=15
num_cat=0
split_feature=7 6 7 4 7 1 6 2 13 6 7 4 16 9
split_gain=300.862 116.624 40.6142 20.5095 17.9831 16.8308 14.8131 13.0061 11.8951 11.4478 11.5511 11.2801 12.3362 9.12106
threshold=4.5642857142857158 24.050000000000004 2.077380952285715 4.5100000000000007 51.072499999999998 4.5000000000000009 8.5090000000000021 44.500000000000007 29.550000000000004 3.3316666665000008 4.4214285714285717 27.750000000000004 2.1214285714285719 1.0000000180025095e-35
decision_type=2 2 2 2 2 2 2 2 2 2 2 2 2 2
left_child=2 3 7 13 5 -3 11 -1 -8 10 -4 12 -5 -2
right_child=1 4 9 6 -6 -7 8 -9 -10 -11 -12 -13 -14 -15
leaf_value=-0.035887582925819075 -0.016070450715155893 0.089890908222435575 -0.031872553952389283 0.036102097472136128 0.50910320472108239 0.26419447822864545 0.025708822056445122 -0.045236900870661186 -0.046744666812126918 -0.009776501254839998 0.041824451018779338 0.099272478330026143 -0.0035491965124638102 0.27912939642666312
leaf_weight=775 947 785 767 182 133 323 1967 207 12.999999999999998 523 34 42 1714 7.9999999999999991
leaf_count=775 947 785 767 182 133 323 1967 207 13 523 34 42 1714 8
internal_value=-0.000362352 0.00311923 -0.00959714 0.00102627 0.0113304 0.0100641 0.00198851 -0.0142271 0.00381364 -0.00615634 -0.00841573 0.000119195 -0.000216772 -0.00291204
internal_weight=8420 6114 2306 4873 1241 1108 3918 982 1980 1324 801 1938 1896 955
internal_count=8420 6114 2306 4873 1241 1108 3918 982 1980 1324 801 1938 1896 955
is_linear=0
shrinkage=0.03


Tree=55
num_leaves=15
num_cat=0
split_feature=7 7 7 7 5 4 2 10 1 13 5 16 13 1
split_gain=294.286 113.413 34.527 25.5818 21.1697 16.8514 12.4928 11.319 13.0635 10.7397 9.58638 9.24813 13.1747 8.75608
threshold=4.2785714285714294 27.632142857142863 2.077380952285715 10.000357142857144 50.020000000000003 7.7480000000000011 41.500000000000007 1.0000000180025095e-35 4.5000000000000009 19.150000000000002 8.6650000000000009 6.8071428571428578 6.0500000000000007 5.5000000000000009
decision_type=2 2 2 2 2 2 2 2 2 2 2 2 2 2
left_child=2 3 6 7 9 -5 11 -2 -9 -3 -10 -1 -13 -7
right_child=1 4 -4 5 -6 13 -8 8 10 -11 -12 12 -14 -15
leaf_value=-0.037887724026483653 -0.010088913870104599 0.18784993359858645 -0.027447193427393591 -0.015320811713005455 0.4036170063926221 0.047036402981038554 -0.043879793844541354 -0.00023650372283381848 0.004158901973405107 0.02830292244743722 0.047360430215875327 0.035805004336713964 -0.034810955438044508 -0.0027203543659321916
leaf_weight=253 2238 718 1170 242 246 1206 264 915 174 128 180 12.999999999999998 452 221
leaf_count=253 2238 718 1170 242 246 1206 264 915 174 128 180 13 452 221
internal_value=-0.000376603 0.00290858 -0.00994935 0.00105313 0.0116951 0.00411084 -0.0141049 -0.000399487 0.00186052 0.00942199 0.00675424 -0.0120209 -0.00946452 0.00535459
internal_weight=8420 6268 2152 5176 1092 1669 982 3507 1269 846 354 718 465 1427
internal_count=8420 6268 2152 5176 1092 1669 982 3507 1269 846 354 718 465 1427
is_linear=0
shrinkage=0.03


Tree=56
num_leaves=15
num_cat=0
split_feature=7 6 5 6 5 13 2 11 0 13 1 13 6 13
split_gain=283.933 114.105 29.2634 26.4536 20.3684 16.084 17.4331 14.1408 13.0644 10.8233 9.80964 14.0261 10.2358 10.2289
threshold=3.4357142857142864 17.225000000000005 40.962500000000013 3.3450000000000002 6.3350000000000009 9.4500000000000011 28.500000000000004 1.0000000180025095e-35 8.5000000000000018 5.6500000000000012 2.5000000000000004 20.550000000000004 6.3465000000000007 24.550000000000004
decision_type=2 2 2 2 2 2 2 2 2 2 2 2 2 2
left_child=3 4 7 5 9 -1 -7 8 -3 -2 11 12 -11 -12
right_child=1 2 -4 -5 -6 6 -8 -9 -10 10 13 -13 -14 -15
leaf_value=-0.042563400029205112 0.008979362926906544 0.070801243374512615 0.29519521902864337 -0.025717175416240284 0.0089561287577856058 -0.014694895600365689 -0.033766626774903177 -0.029926447541680747 0.13332378395616373 -0.03460612323631207 -0.023666962244481973 0.024878716928241111 0.0071339912116550946 -0.045854786316632
leaf_weight=595 370 874 442 428 2876 231 534 67 369 275 870 210 179 100
leaf_count=595 370 874 442 428 2876 231 534 67 369 275 870 210 179 100
internal_value=-0.000390855 0.00246849 0.00903596 -0.0110017 0.000108811 -0.0130522 -0.0101451 0.00677176 0.00749879 -0.00221108 -0.00326255 -0.000438253 -0.0034163 -0.0051866
internal_weight=8420 6632 1752 1788 4880 1360 765 1310 1243 2004 1634 664 454 970
internal_count=8420 6632 1752 1788 4880 1360 765 1310 1243 2004 1634 664 454 970
is_linear=0
shrinkage=0.03


Tree=57
num_leaves=15
num_cat=0
split_feature=7 6 5 6 7 13 2 11 16 16 6 13 4 3
split_gain=274.165 108.172 27.7757 26.505 20.3255 16.3961 15.4663 14.9996 12.5061 11.2606 10.8253 10.0792 9.93764 8.94574
threshold=3.4357142857142864 18.812500000000004 40.962500000000013 3.3450000000000002 7.9994285714285729 8.4500000000000011 28.500000000000004 1.0000000180025095e-35 -6.5071428571428562 4.3142857142857149 5.5025000000000004 18.450000000000003 5.3100000000000014 1.0000000180025095e-35
decision_type=2 2 2 2 2 2 2 2 2 2 2 2 2 2
left_child=3 4 7 5 9 -1 -7 11 -6 -2 -11 -3 -10 -5
right_child=1 2 -4 13 8 6 -8 -9 12 10 -12 -13 -14 -15
leaf_value=-0.041286498028328955 0.015051827811877274 0.11825025629011264 0.28475198084877484 -0.031384970467741226 0.11123437408289716 -0.015311692849753448 -0.032753627971656082 -0.070777606419470576 -0.014862345743653122 -0.027445292691476688 -0.00070035550219078142 0.042370067577524199 0.017155637501821967 0.0043807779958677396
leaf_weight=548 311 755 437 289 14.999999999999998 257 555 60 371 1111 1017 380 2175 139
leaf_count=548 311 755 437 289 15 257 555 60 371 1111 1017 380 2175 139
internal_value=-0.000440736 0.00236897 0.00907537 -0.0108674 0.0001782 -0.0129199 -0.010186 0.0066954 0.00204647 -0.00177983 -0.00256156 0.00747225 0.00188178 -0.00432477
internal_weight=8420 6632 1632 1788 5000 1360 812 1195 2561 2439 2128 1135 2546 428
internal_count=8420 6632 1632 1788 5000 1360 812 1195 2561 2439 2128 1135 2546 428
is_linear=0
shrinkage=0.03


Tree=58
num_leaves=15
num_cat=0
split_feature=4 6 6 5 5 5 2 14 12 16 2 2 6 4
split_gain=237.99 88.7409 60.6661 25.4726 18.8082 18.7583 17.1432 11.7436 11.0187 10.4774 12.1802 10.3311 9.29197 8.68544
threshold=4.5100000000000007 17.953333335000007 3.5645000000000002 53.050000000000004 5.0300000000000011 2.4145000000000008 42.500000000000007 15.15 1.0000000180025095e-35 7.378571428571429 25.500000000000004 9.5000000000000018 26.671333333500005 29.675000000000001
decision_type=2 2 2 2 2 2 2 2 2 2 2 2 2 2
left_child=2 5 4 7 6 13 8 -3 9 -1 -11 -7 -4 -2
right_child=1 3 12 -5 -6 11 -8 -9 -10 10 -12 -13 -14 -15
leaf_value=-0.036752070189322437 -0.026501964130165027 0.12242683403037335 -0.014874155199757006 0.39682318239134862 -0.01981150828136646 0.024099494062401208 -0.040047903087479096 0.041098965550198423 0.037731017190004344 -0.022069059284518959 -0.031771019132506406 0.0032388899378894909 0.089640285592235552 0.28733312653479537
leaf_weight=317 535 1077 1192 181 247 612 291 390 33 276 497 2734 28 9.9999999999999982
leaf_count=317 535 1077 1192 181 247 612 291 390 33 276 497 2734 28 10
internal_value=-0.000447862 0.00318848 -0.00744221 0.00902367 -0.0111746 0.000714726 -0.0125113 0.00770348 -0.0108112 -0.0113312 -0.00941915 0.00155738 -0.00235328 -0.0044422
internal_weight=8420 5539 2881 1648 1661 3891 1414 1467 1123 1090 773 3346 1220 545
internal_count=8420 5539 2881 1648 1661 3891 1414 1467 1123 1090 773 3346 1220 545
is_linear=0
shrinkage=0.03


Tree=59
num_leaves=15
num_cat=0
split_feature=7 5 6 7 6 16 2 3 4 14 16 3 7 15
split_gain=263.833 96.9025 25.4216 22.021 21.9504 16.7245 17.87 15.2531 13.0481 11.7931 10.5966 8.94574 14.5676 8.69318
threshold=3.4357142857142864 22.025000000000002 3.3450000000000002 47.388785714285724 11.786500000000002 7.378571428571429 28.500000000000004 1.0000000180025095e-35 2.2458333335000007 1.6500000000000001 1.0000000000000002 1.0000000180025095e-35 1.4357142857142859 10.65
decision_type=2 2 2 2 2 2 2 2 2 2 2 2 2 2
left_child=2 4 5 7 8 -1 -7 -3 -2 -9 -10 13 -13 -4
right_child=1 3 11 -5 -6 6 -8 9 10 -11 -12 12 -14 -15
leaf_value=-0.03884646599485473 -0.030738634520519496 0.068120223780976152 -0.025865021107357857 0.40650570884439785 0.021399523674463801 -0.019973098279883104 -0.030817888558531216 0.36339441048850624 0.03467866901193653 0.15946135273246428 -0.0019907864646205552 -0.046795096925077675 0.018509231603903862 -0.068750066666527693
leaf_weight=485 533 826 269 211 1357 290 585 67 214 268 3156 31 108 20
leaf_count=485 533 826 269 211 1357 290 585 67 214 268 3156 31 108 20
internal_value=-0.000504869 0.00225136 -0.0107332 0.00935204 0.000397529 -0.0127434 -0.0102411 0.00771835 -0.000743274 0.0131373 -5.07418e-05 -0.00432477 0.0018777 -0.0073391
internal_weight=8420 6632 1788 1372 5260 1360 875 1161 3903 335 3370 428 139 289
internal_count=8420 6632 1788 1372 5260 1360 875 1161 3903 335 3370 428 139 289
is_linear=0
shrinkage=0.03


Tree=60
num_leaves=15
num_cat=0
split_feature=7 7 5 0 8 0 14 5 16 1 13 14 14 2
split_gain=248.482 94.6782 28.9547 20.7565 22.072 15.4714 14.6093 14.2884 11.4817 10.2147 12.5029 10.1925 10.1007 9.77748
threshold=3.4357142857142864 12.005428571428572 49.150000000000006 9.5000000000000018 1.0000000180025095e-35 2.5000000000000004 17.850000000000005 6.447000000000001 4.3142857142857149 2.5000000000000004 20.550000000000004 18.050000000000004 0.55000000000000016 8.5000000000000018
decision_type=2 2 2 2 2 2 2 2 2 2 2 2 2 2
left_child=3 7 6 5 -5 -1 13 8 -2 10 -10 -8 -4 -3
right_child=1 2 12 4 -6 -7 11 -9 9 -11 -12 -13 -14 -15
leaf_value=-0.03592547733478646 0.020756841821782526 0.10660278399028233 0.42997330039548703 0.059389123525928476 -0.037681072015009087 -0.025336028903091015 -0.0544497782761705 0.0063127171298763595 -0.013264610473314837 -0.024721196765807835 0.023397185188441541 0.0083026566249692017 0.24241846686045868 0.076908471337707368
leaf_weight=340 273 311 83 32 368 1048 13.999999999999998 2462 517 1052 218 275 177 1250
leaf_count=340 273 311 83 32 368 1048 14 2462 517 1052 218 275 177 1250
internal_value=-0.000504869 0.00216993 0.00741754 -0.0104312 -0.0164775 -0.00868228 0.00609243 -0.000276648 -0.00212184 -0.003 -0.000273469 -7.26644e-05 0.0168115 0.00723959
internal_weight=8420 6632 2110 1788 400 1388 1850 4522 2060 1787 735 289 260 1561
internal_count=8420 6632 2110 1788 400 1388 1850 4522 2060 1787 735 289 260 1561
is_linear=0
shrinkage=0.03


Tree=61
num_leaves=15
num_cat=0
split_feature=7 7 7 16 10 1 0 2 2 4 11 6 6 5
split_gain=232.654 88.1707 29.2373 23.0915 19.9471 15.6912 15.5803 13.6939 17.487 13.9948 11.8247 11.4363 10.5102 10.2769
threshold=3.4357142857142864 12.005428571428572 51.072499999999998 6.5071428571428589 1.0000000180025095e-35 4.5000000000000009 9.5000000000000018 8.5000000000000018 32.500000000000007 16.995000000000005 1.0000000180025095e-35 6.9975000000000014 17.005000000000003 5.3450000000000006
decision_type=2 2 2 2 2 2 2 2 2 2 2 2 2 2
left_child=3 4 7 11 -2 -6 -5 -3 9 12 -8 -1 -9 -7
right_child=1 2 -4 6 5 13 10 8 -10 -11 -12 -13 -14 -15
leaf_value=-0.036550639854558815 -0.010252396353051049 0.1152757864879448 0.45582413953059508 -0.024822906464952176 0.0022565181954178472 -0.030464250950173043 -0.035971135605220347 -0.045436060020831052 0.082561058311179769 0.066903145680167239 0.083212596145873702 0.043934636928956099 0.0127686354760508 0.03789420094397801
leaf_weight=455 2898 344 143 1071 1156 63 221 105 665 737 19 22 116 405
leaf_count=455 2898 344 143 1071 1156 63 221 105 665 737 19 22 116 405
internal_value=-0.000490618 0.00209756 0.00716161 -0.0100956 -0.000263379 0.00239594 -0.00802517 0.00620285 0.00504067 0.00243319 -0.0149625 -0.0157673 -0.00416742 0.00703205
internal_weight=8420 6632 2110 1788 4522 1624 1311 1967 1623 958 240 477 221 468
internal_count=8420 6632 2110 1788 4522 1624 1311 1967 1623 958 240 477 221 468
is_linear=0
shrinkage=0.03


Tree=62
num_leaves=15
num_cat=0
split_feature=7 6 7 7 7 0 1 16 16 13 11 2 13 6
split_gain=222.424 87.4565 23.8107 22.2593 18.2327 15.2078 15.0007 13.7961 11.5058 11.4632 10.9998 11.1481 9.69778 9.12709
threshold=3.4357142857142864 24.450000000000003 2.077380952285715 51.072499999999998 7.9994285714285729 9.5000000000000018 4.5000000000000009 -5.8999999999999995 6.8071428571428578 6.0500000000000007 1.0000000180025095e-35 11.500000000000002 29.550000000000004 5.6650000000000009
decision_type=2 2 2 2 2 2 2 2 2 2 2 2 2 2
left_child=2 4 5 6 13 8 -3 -6 -1 -10 12 -12 -9 -2
right_child=1 3 -4 -5 7 -7 -8 10 9 -11 11 -13 -14 -15
leaf_value=-0.029793355762757455 -0.020558228123060029 0.066954100926640586 -0.023054142985698807 0.42750792791337389 0.097323437510010338 -0.035454120658922054 0.21983638318692342 0.015272052583908716 0.041019075294905179 -0.028388583840733981 0.022536504064497257 -0.051746672368614882 -0.051596540457414443 0.0009628856637562144
leaf_weight=251 1236 777 806 133 31 302 321 2605 12.999999999999998 416 96 149 18 1266
leaf_count=251 1236 777 806 133 31 302 321 2605 13 416 96 149 18 1266
internal_value=-0.00046924 0.00206137 -0.00986074 0.00927782 0.000414923 -0.0130051 0.00786066 0.00203553 -0.0104868 -0.00746154 0.00181695 -0.00424898 0.00238696 -0.00145923
internal_weight=8420 6632 1788 1231 5401 982 1098 2899 680 429 2868 245 2623 2502
internal_count=8420 6632 1788 1231 5401 982 1098 2899 680 429 2868 245 2623 2502
is_linear=0
shrinkage=0.03


Tree=63
num_leaves=15
num_cat=0
split_feature=7 7 6 7 2 11 16 14 16 6 13 2 1 16
split_gain=217.733 90.9404 22.9015 22.3862 20.0835 18.6106 16.3116 13.4678 10.8998 9.14473 8.24924 7.64858 7.25826 6.94503
threshold=2.8428571428571434 23.089285714285719 3.0050000000000003 51.072499999999998 39.500000000000007 1.0000000180025095e-35 6.8071428571428578 0.95000000000000007 -5.8999999999999995 11.786500000000002 -2.0499999999999994 51.500000000000007 4.5000000000000009 -0.46428571428571425
decision_type=2 2 2 2 2 2 2 2 2 2 2 2 2 2
left_child=4 2 -2 7 6 -6 -1 12 -4 11 -11 13 -3 -10
right_child=1 3 8 -5 5 -7 -8 -9 9 10 -12 -13 -14 -15
leaf_value=-0.031767861916922234 -0.02071116540809493 0.15843771896047928 0.081389972130336649 0.42932417750727586 -0.034390497039154387 0.19290951873078613 -0.023536140633931845 0.084600557753438319 0.03470086910505879 -0.046914733673601244 0.017882377235598719 0.062162950759441803 0.35906789176015452 -0.0017026601323522871
leaf_weight=315 1261 166 35 143 362 11.999999999999998 734 1019 113 49 1248 57 65 2841
leaf_count=315 1261 166 35 143 362 12 734 1019 113 49 1248 57 65 2841
internal_value=-0.000447862 0.0017266 1.98073e-05 0.0085865 -0.0111462 -0.0171417 -0.009 0.0072888 0.0010548 0.000917131 0.00302313 6.97443e-06 0.0138571 -0.000200068
internal_weight=8420 6997 5604 1393 1423 374 1049 1250 4343 4308 1297 3011 231 2954
internal_count=8420 6997 5604 1393 1423 374 1049 1250 4343 4308 1297 3011 231 2954
is_linear=0
shrinkage=0.03


Tree=64
num_leaves=15
num_cat=0
split_feature=7 7 0 7 5 16 14 16 4 16 1 13 15 13
split_gain=218.603 90.259 22.6817 22.3862 21.4957 16.1556 13.4678 13.3197 12.5493 10.8495 10.4747 8.79791 10.0998 8.72035
threshold=2.8428571428571434 23.089285714285719 9.5000000000000018 51.072499999999998 6.447000000000001 6.8071428571428578 0.95000000000000007 3.5571428571428578 2.0100000000000002 -5.8999999999999995 2.5000000000000004 13.550000000000002 2.2500000000000004 24.550000000000004
decision_type=2 2 2 2 2 2 2 2 2 2 2 2 2 2
left_child=2 4 5 6 7 -1 -3 -2 -9 -6 -10 12 -11 -12
right_child=1 3 -4 -5 9 -7 -8 8 10 11 13 -13 -14 -15
leaf_value=-0.032181361481215684 0.023571937280616448 0.22430423522425258 -0.033358782127979755 0.41644445218205761 0.091919497569456193 -0.022680510762414674 0.082062541020835128 -0.031375217358052411 0.0050341960467571662 0.0082694155295936159 -0.015740273128072545 0.012327217560203821 -0.023733164883660007 -0.033295225204370976
leaf_weight=316 264 231 368 143 33 739 1019 464 711 1097 907 1635 403 90
leaf_count=316 264 231 368 143 33 739 1019 464 711 1097 907 1635 403 90
internal_value=-0.000426485 0.00175232 -0.0111462 0.0085865 5.19272e-05 -0.00889194 0.0072888 -0.00206527 -0.00284116 0.00168277 -0.00164578 0.00149952 -0.000154 -0.0036319
internal_weight=8420 6997 1423 1393 5604 1055 1250 2436 2172 3168 1708 3135 1500 997
internal_count=8420 6997 1423 1393 5604 1055 1250 2436 2172 3168 1708 3135 1500 997
is_linear=0
shrinkage=0.03


Tree=65
num_leaves=15
num_cat=0
split_feature=7 7 7 0 5 0 14 14 6 1 14 14 5 14
split_gain=211.493 86.8731 23.0836 22.725 21.2788 16.786 12.1494 10.3626 10.0609 8.89874 8.67469 12.2346 9.50684 8.5139
threshold=2.8428571428571434 23.089285714285719 51.072499999999998 9.5000000000000018 6.447000000000001 2.5000000000000004 0.95000000000000007 2.3500000000000001 11.786500000000002 2.5000000000000004 17.750000000000004 10.350000000000003 7.3450000000000006 21.450000000000003
decision_type=2 2 2 2 2 2 2 2 2 2 2 2 2 2
left_child=3 4 6 5 7 -1 -3 -2 -6 -9 11 -10 -12 -11
right_child=1 2 -4 -5 8 -7 -8 9 10 13 12 -13 -14 -15
leaf_value=-0.028481076957419117 0.0079622613039993066 0.21757510816752498 0.40395111861659594 -0.032358018664140356 0.0021798473618891024 -0.022149641092041438 0.079600664790210052 -0.0030495447392151131 0.017068504563538481 -0.022264319991876221 0.054005195342969214 0.042718872254657647 -0.017150044948858918 -0.03229636844823984
leaf_weight=315 437 231 143 368 2178 740 1019 833 483 1128 11.999999999999998 315 180 38
leaf_count=315 437 231 143 368 2178 740 1019 833 483 1128 12 315 180 38
internal_value=-0.00043361 0.00170945 0.00841421 -0.0109775 4.12206e-05 -0.00872133 0.0070968 -0.00206527 0.00166383 -0.00298199 0.00417273 0.00555263 -0.00151562 -0.00467496
internal_weight=8420 6997 1393 1423 5604 1055 1250 2436 3168 1999 990 798 192 1166
internal_count=8420 6997 1393 1423 5604 1055 1250 2436 3168 1999 990 798 192 1166
is_linear=0
shrinkage=0.03


Tree=66
num_leaves=15
num_cat=0
